341 100
edu_0.0 -0.28900012 0.40869027 0.036540452 0.45331532 0.20208566 -0.24176994 -0.037388396 0.24561402 0.6864669 0.671359 0.32670313 -0.16352783 0.11938975 -0.8575773 0.76727307 -0.15820816 0.039346978 0.47369596 0.34069866 -0.3070833 -0.71603775 -0.00904701 0.12725444 -0.054069206 -0.5943911 0.564385 -0.5905514 -0.76470214 -0.011902243 -0.8578061 0.90463686 -0.17057763 -0.5062684 0.010001831 -0.2817719 0.07015311 0.188014 0.16678452 0.6591394 -0.3221719 -0.48619002 -0.9702525 0.037412297 0.63968074 0.030836197 0.075856365 0.49066412 -0.379175 0.65410024 -0.08081816 0.06910578 0.20108904 -0.6893458 -0.27772304 0.14920093 -0.54282016 -0.112297446 0.27707094 0.44420233 -0.24035394 0.32432088 0.27399603 -0.37134314 -0.43569142 0.5268682 0.80338573 0.115942754 0.57516265 -0.17076461 -0.28039658 0.09675525 0.031512674 0.18305518 -0.040026903 0.12638433 0.17906746 0.119990185 0.5968034 0.12225008 0.12275291 -0.40198484 -0.28372976 0.45023444 -0.10762758 0.59378403 0.020724304 0.09937173 -0.2212899 -0.43371072 -0.697803 -0.5249633 0.42117533 -0.099295236 0.40181336 -0.6952516 -0.05596096 0.453509 -0.57848424 -0.30643737 -0.45831907
x_0_0.0 -0.4965651 0.39164716 0.04205913 0.27146524 0.21358614 -0.43393317 -0.11343558 0.32923865 0.72594047 0.6386909 0.3963933 -0.21493267 0.25221878 -0.9611661 0.8277373 -0.022801595 -0.14095898 0.6662483 0.23684113 -0.36138758 -0.773697 0.14257823 0.33053702 -0.056992237 -0.58118916 0.67287946 -0.7915013 -0.92162603 -0.02991128 -1.0173205 1.0894736 -0.1424557 -0.48413923 0.49760768 -0.3217882 0.151096 0.18497583 0.20065525 0.92556196 -0.5200777 -0.5801814 -1.3337287 0.20226064 1.0231988 -0.17662977 0.018634122 0.6932539 -0.29039788 0.89904934 -0.092502564 0.42754224 0.053069036 -0.6845407 -0.2306372 0.24697855 -0.5656774 0.006179534 0.45651615 0.41963547 -0.46441665 0.48155978 0.44129422 -0.41006288 -0.28778812 0.6560801 0.8221907 -0.07212134 0.4174547 -0.0035247377 -0.44429988 0.032980297 0.19877873 0.2375615 -0.14300753 0.38717872 0.27216282 0.29785162 0.5222279 0.24719827 0.32597503 -0.33240306 -0.46651468 0.5183858 -0.17822638 0.41441214 -0.3046781 0.3543811 -0.36014262 -0.49215025 -0.92348176 -0.66444427 0.5690481 -0.27968773 0.38906172 -0.99044234 -0.017794006 0.6176381 -0.48518848 -0.51019794 -0.5537579
x_1_0.0 -0.5117089 0.39345708 0.03374951 0.26801705 0.2030787 -0.44984588 -0.1186165 0.34877586 0.74492395 0.6469109 0.4030699 -0.21553181 0.2589473 -0.9763772 0.8417219 -0.01933833 -0.14084737 0.6803808 0.24833326 -0.36821842 -0.80084866 0.1322767 0.33601972 -0.05237348 -0.5799346 0.6837807 -0.8066214 -0.9402256 -0.027902294 -1.0516489 1.1090792 -0.13487618 -0.49918583 0.5120834 -0.34305486 0.16190332 0.19417374 0.21019089 0.9637221 -0.53180283 -0.57453877 -1.3690962 0.19943418 1.0628928 -0.18329652 0.019821433 0.7061195 -0.3211931 0.92583346 -0.091101006 0.43104085 0.053757414 -0.69421196 -0.24635155 0.24553354 -0.5891195 -0.010491301 0.47573096 0.42373508 -0.47595295 0.48112428 0.46546727 -0.40968198 -0.30717707 0.65316427 0.8421338 -0.08058184 0.43706337 -0.017820098 -0.44679907 0.04053621 0.22038138 0.23813549 -0.15446027 0.4033573 0.28325024 0.30584875 0.536311 0.23652181 0.34167314 -0.32954454 -0.46121004 0.52514046 -0.18635117 0.43136457 -0.32516545 0.37112498 -0.37897855 -0.5068823 -0.9337025 -0.69758797 0.5809608 -0.29035833 0.3987595 -1.0082511 -0.020314286 0.62556934 -0.49529564 -0.528131 -0.5783612
x_16_1.0 -0.5308867 0.37558934 0.029221382 0.19335319 0.20861362 -0.51240087 -0.13138258 0.28393164 0.72071195 0.5029166 0.32436505 -0.29015246 0.2683627 -0.85490334 0.710318 0.04196794 -0.21828018 0.6603166 0.14877185 -0.2856112 -0.6806681 0.19245443 0.41317707 -0.08762783 -0.52456087 0.6553927 -0.8111884 -0.8869587 -0.069342054 -0.93751436 1.1084508 -0.08842209 -0.4368464 0.62639856 -0.255502 0.15876429 0.14724484 0.21870348 0.95450306 -0.53457224 -0.639021 -1.3384677 0.24570705 1.0553892 -0.24654467 -0.047986303 0.76152754 -0.16306566 0.8872822 -0.112424344 0.60937107 -0.026339538 -0.65650636 -0.1682681 0.25582248 -0.4858687 0.08051 0.47150716 0.35497978 -0.6102625 0.46151364 0.419533 -0.350137 -0.16114688 0.6684465 0.6899495 -0.16642658 0.27778065 0.14669834 -0.47114366 0.03165148 0.28463158 0.2182341 -0.14507517 0.4600838 0.27224994 0.37698773 0.39755243 0.2805422 0.3447231 -0.29180923 -0.5253206 0.52616805 -0.1382145 0.22806291 -0.40253276 0.40626675 -0.34607235 -0.4615791 -0.9455737 -0.65194947 0.56143534 -0.35296872 0.30281034 -0.96317345 0.03558235 0.60832995 -0.39939785 -0.46222934 -0.49905658
x_22_1.0 -0.5657329 0.42153522 0.027011046 0.20808092 0.22538278 -0.5881962 -0.1309706 0.25576115 0.81598234 0.48064536 0.30513373 -0.3729402 0.29301438 -0.89451313 0.7209942 0.058692034 -0.26631343 0.7153524 0.12061111 -0.27108648 -0.7025474 0.21780467 0.48632395 -0.119124815 -0.5632885 0.70876944 -0.91755784 -0.9564231 -0.087763585 -0.9808234 1.2190866 -0.061356522 -0.4596825 0.7056532 -0.24123582 0.17528687 0.13296093 0.2636589 1.0592108 -0.583185 -0.74233615 -1.4552665 0.2815611 1.13247 -0.2785719 -0.094526395 0.87567157 -0.09978635 0.9676119 -0.1399961 0.7320201 -0.05847514 -0.73765236 -0.15349302 0.2836593 -0.49713096 0.13487703 0.5037777 0.37379682 -0.7577912 0.4723294 0.4122877 -0.34877363 -0.13803406 0.75334334 0.69283575 -0.21579675 0.2392881 0.2296686 -0.5246546 0.053482834 0.3609827 0.2251944 -0.1418587 0.5210036 0.2999934 0.45608684 0.38694257 0.31814843 0.37438115 -0.31738353 -0.6018589 0.60215276 -0.10512213 0.15540978 -0.46622172 0.45207208 -0.34188202 -0.5094158 -1.0528985 -0.7017375 0.6162214 -0.41053778 0.27308944 -1.0078218 0.06275333 0.644979 -0.41390944 -0.46024886 -0.4955296
x_29_0.0 -0.48154327 0.4594722 0.046182938 0.23314483 0.32864338 -0.68989134 -0.116664015 -0.0071427864 0.8854327 0.2128098 0.06671036 -0.6137814 0.21224837 -0.6060561 0.3847679 0.06356135 -0.32013142 0.61250806 -0.048614617 -0.048315257 -0.41384766 0.27972075 0.5682992 -0.25275102 -0.53475165 0.67288595 -0.9298043 -0.814134 -0.16108038 -0.66590416 1.2473743 0.0029182674 -0.35504732 0.76566046 0.04397886 0.09843638 0.029947037 0.24444032 0.96296567 -0.5362503 -0.9970516 -1.2826295 0.300065 0.9459834 -0.2896205 -0.23502049 0.97850114 0.3212537 0.78574145 -0.22920677 1.114913 -0.18978496 -0.80320793 0.014410039 0.25216576 -0.26559708 0.32276937 0.3746123 0.24943598 -1.0600996 0.40093368 0.15177517 -0.19473116 0.13456216 0.8105578 0.37151727 -0.3256749 -0.032303825 0.5765007 -0.5353434 0.061567333 0.45422977 0.11669459 -0.01767944 0.5136021 0.2551563 0.5130225 0.16626775 0.4260183 0.23291351 -0.33331263 -0.7320475 0.67673016 0.105427176 -0.26701564 -0.45995185 0.4123293 -0.14909838 -0.40382662 -1.1311946 -0.5108208 0.49778953 -0.49938124 0.037688762 -0.7530402 0.16126055 0.59317017 -0.29607776 -0.13756202 -0.26871386
x_30_0.0 -0.46812278 0.5006884 0.036914874 0.27764466 0.34630638 -0.6967444 -0.113319956 -0.053568702 0.9382189 0.20056753 0.040353607 -0.66234624 0.1924839 -0.6032808 0.37322333 0.05722708 -0.30481 0.6053272 -0.058169857 -0.018709878 -0.39491278 0.264193 0.58148944 -0.27137467 -0.5571969 0.67616016 -0.94760233 -0.8173817 -0.17557949 -0.6486942 1.2806209 0.009981709 -0.3588745 0.707183 0.07515195 0.07197586 0.015377815 0.2620744 0.9576455 -0.52862686 -1.06845 -1.2751927 0.28282085 0.90560275 -0.27233553 -0.25921962 1.0028851 0.36145473 0.7800506 -0.2390944 1.1297477 -0.17442787 -0.86949575 0.027131185 0.24874309 -0.26483205 0.32762516 0.3573458 0.25075582 -1.1122801 0.37408808 0.1139428 -0.18338683 0.1338681 0.83009434 0.35279813 -0.31277573 -0.026233736 0.61028254 -0.5394556 0.07505869 0.45834345 0.10841975 0.00967843 0.4981284 0.23551726 0.5301309 0.16099283 0.44052073 0.19807135 -0.37589505 -0.759939 0.7136248 0.14253584 -0.2984639 -0.42545688 0.3796003 -0.1099913 -0.41796973 -1.1590472 -0.5087084 0.49018613 -0.4919258 0.02270285 -0.7209992 0.18299764 0.5814567 -0.3251428 -0.085783206 -0.24793777
x_31_0.0 -0.41520184 0.48322693 0.041256037 0.28740513 0.35268444 -0.6809568 -0.0927883 -0.091356464 0.9203631 0.14439996 -0.008269186 -0.6686441 0.15548782 -0.53067493 0.30350846 0.045045283 -0.2901376 0.54818255 -0.06893352 0.021723496 -0.3393808 0.24931411 0.55529976 -0.28297737 -0.53906703 0.6472309 -0.9117915 -0.7692966 -0.18109088 -0.5734384 1.2218958 0.028357254 -0.3381502 0.64740556 0.11261961 0.0605883 0.0060591833 0.24733336 0.8883761 -0.4925556 -1.0672776 -1.1866772 0.2540949 0.8094846 -0.2383942 -0.25893945 0.98090273 0.39359772 0.7060606 -0.24305284 1.1073338 -0.17984512 -0.85215306 0.04772526 0.22327784 -0.20909101 0.3433842 0.3244343 0.2346783 -1.1114118 0.34319264 0.052978385 -0.15223546 0.1562137 0.80963534 0.29517835 -0.3060315 -0.04976866 0.63233054 -0.5046 0.08130953 0.446675 0.08536812 0.03677716 0.46051744 0.2234931 0.50960577 0.12003601 0.41574976 0.15263055 -0.3718474 -0.7358779 0.69886065 0.18541734 -0.328424 -0.3886168 0.3456876 -0.06862599 -0.3785369 -1.0996313 -0.44722432 0.45388508 -0.4633237 -0.0113315135 -0.6264712 0.18509983 0.5397815 -0.3059392 -0.023792049 -0.20759962
x_32_0.0 -0.4191428 0.5093383 0.045677032 0.32242543 0.39158082 -0.7105421 -0.09482603 -0.15172996 0.9879493 0.11550905 -0.035704795 -0.7384828 0.15724725 -0.5046001 0.2645127 0.024200078 -0.30513942 0.563784 -0.09643896 0.063203864 -0.30871245 0.2710066 0.5858879 -0.32048982 -0.5571761 0.66706365 -0.9513113 -0.7636398 -0.1969206 -0.5442846 1.2899759 0.023301644 -0.34736937 0.67381513 0.16618472 0.039549723 -0.018111069 0.24594657 0.90946776 -0.4974901 -1.1556119 -1.2052362 0.27084407 0.81538415 -0.2603495 -0.2954481 1.0288179 0.48344165 0.69679457 -0.26789522 1.2194679 -0.20725597 -0.90727085 0.07667106 0.23334599 -0.20221366 0.36365107 0.3059612 0.23044877 -1.195758 0.33911145 0.006165887 -0.14858097 0.21396843 0.8482982 0.24867912 -0.33440113 -0.08376037 0.71525264 -0.53596795 0.08127406 0.4743532 0.06527688 0.06692516 0.47202653 0.21237408 0.5248508 0.11062754 0.45901048 0.12792219 -0.39699653 -0.79518276 0.7387543 0.22710098 -0.40543622 -0.39114034 0.32870987 -0.03104269 -0.37952167 -1.1695093 -0.4301181 0.44287977 -0.506475 -0.04554814 -0.61308306 0.21139894 0.55907226 -0.30518425 0.050990317 -0.17063858
x_39_0.0 -0.16970392 0.5713516 0.06723998 0.60479176 0.5654679 -0.6312127 -0.03283505 -0.555874 1.1284899 -0.11251835 -0.3115432 -0.97924477 -0.04308073 -0.14699051 -0.12768872 -0.14893048 -0.16522066 0.32272717 -0.14756718 0.36346778 0.025593642 0.16568151 0.5284588 -0.46237177 -0.6056764 0.57031983 -0.81003106 -0.4747339 -0.25583163 -0.04241027 1.2262135 0.015083825 -0.24916112 0.2340992 0.5410498 -0.12853877 -0.11381515 0.18361287 0.5688063 -0.26896667 -1.4225422 -0.7060877 0.1118343 0.2447063 -0.07267545 -0.35993922 1.0044671 0.86409533 0.31687436 -0.34895504 1.3134592 -0.20000333 -1.0711491 0.25125867 0.14139144 0.012437837 0.41774738 -0.001083494 0.1289395 -1.3708271 0.13043736 -0.47244924 0.008744189 0.39610782 0.8192848 -0.10385759 -0.27652907 -0.18468736 0.95368606 -0.43791747 0.13106884 0.4192917 -0.06250803 0.32757849 0.18904175 0.016642725 0.44383743 -0.036405254 0.4830352 -0.26059097 -0.53126025 -0.84745574 0.8355164 0.5412602 -0.6849573 -0.038695738 0.03131659 0.32609653 -0.18408185 -1.0765166 -0.1466386 0.16248573 -0.43463406 -0.31673914 -0.09844606 0.32004106 0.4104122 -0.31037158 0.64263624 0.15393896
x_42_0.0 -0.08600244 0.55229014 0.078608565 0.6890199 0.60813856 -0.5504191 -0.016815776 -0.6612898 1.1149228 -0.14403239 -0.36085746 -0.98366946 -0.10741568 -0.05026849 -0.22149815 -0.21771415 -0.084434 0.23096691 -0.14033835 0.41621727 0.110628195 0.12160315 0.47913194 -0.46320802 -0.60304475 0.5093621 -0.7053025 -0.35626304 -0.26606622 0.10777177 1.1550199 -0.008100663 -0.21790761 0.0542565 0.62486905 -0.17962496 -0.11301923 0.13866282 0.43275785 -0.17229176 -1.4358891 -0.5264555 0.04905492 0.043176852 -0.008379107 -0.3438616 0.92839277 0.90315926 0.18176514 -0.34633896 1.2484695 -0.16696022 -1.0652713 0.28575146 0.09647692 0.04495667 0.3823248 -0.11422801 0.09533765 -1.3243243 0.077526435 -0.5905755 0.05621732 0.40573192 0.7434834 -0.17416455 -0.23724484 -0.17454866 0.9504715 -0.39011675 0.14464903 0.3635629 -0.08905202 0.39076895 0.07142745 -0.05584079 0.36824185 -0.047839444 0.45214844 -0.37120238 -0.5498645 -0.80886936 0.8191504 0.6061623 -0.6870023 0.098324426 -0.073377155 0.41861713 -0.114960365 -0.99093467 -0.068425365 0.055434994 -0.3662857 -0.36410144 0.04750226 0.33095244 0.3406339 -0.3061619 0.7760566 0.23459862
5yearBadloan_0.0 0.26306573 0.38771275 0.06671316 0.5477713 -0.53026325 -0.109295025 0.7136769 0.15901479 0.63551 0.29791138 -0.104689434 -0.459482 -0.30265003 -0.75041777 0.7264433 0.21633427 -0.009239099 -0.09928568 0.2063799 -0.18377294 -0.8882196 -0.40086758 -0.1426917 -0.3270909 -0.44225854 0.3898249 -0.74917775 -0.5570509 -0.061632037 -0.889022 -0.052902456 0.31700832 -0.9118854 -0.8819728 -0.12344443 0.15807065 0.2840368 0.23774397 0.45188177 -0.16305648 -0.40881142 -0.6822024 -0.35355338 -0.23571458 0.34505308 -0.022879496 0.5640448 -0.5699325 0.19601937 0.017044285 -1.0451453 0.56633776 -0.503612 -0.47009227 0.005658265 -0.16562323 0.34912473 0.31530464 0.35761788 -0.4075174 -0.5119095 0.61212015 -0.007169417 -0.63991576 0.609825 0.67242455 0.27687585 0.46873057 -0.36077827 0.16906044 0.4829007 0.024184566 -0.1946229 0.06934257 0.30434462 0.4700589 0.55496764 0.38399288 -0.48060983 0.06145737 -0.70416814 0.13511278 0.20784661 -0.10038447 0.80000657 0.16491605 -0.29270193 0.24624225 -0.7910251 -0.11712532 -0.3544671 0.55074733 0.7122918 0.7065415 -0.016003093 -0.1720903 -0.12717976 -1.0480345 -0.08410997 -0.14586899
x_12_0.0 -0.52858406 0.389284 0.026934464 0.24523129 0.20855792 -0.46389404 -0.1248548 0.33039007 0.740606 0.611706 0.3864535 -0.24260107 0.26299646 -0.9533651 0.8096325 0.0066073784 -0.1722072 0.6853153 0.21311161 -0.35095373 -0.76267874 0.16585785 0.36680374 -0.06395364 -0.5609891 0.67109025 -0.81552565 -0.9273695 -0.03940724 -1.0142049 1.1128211 -0.11472603 -0.48488244 0.5649642 -0.30878702 0.16326301 0.18318032 0.22191459 0.9625738 -0.5429758 -0.59235394 -1.3618814 0.22891605 1.0689353 -0.21237583 -0.013737717 0.7346887 -0.26498556 0.92459065 -0.106457256 0.49528578 0.024096236 -0.68101037 -0.21441847 0.251649 -0.5588586 0.023906564 0.47588345 0.4121095 -0.52603275 0.48186076 0.44000173 -0.39761838 -0.25335953 0.67298275 0.79790395 -0.10872691 0.3789786 0.048091672 -0.46598324 0.030962093 0.23614958 0.24533902 -0.16359878 0.41967565 0.27841684 0.33927944 0.4897764 0.25892696 0.34798488 -0.3166277 -0.49223325 0.53332853 -0.17788358 0.36603025 -0.35524443 0.39044815 -0.37001574 -0.4992333 -0.9499531 -0.6776785 0.57971764 -0.3178853 0.36650386 -1.0113792 -0.006238902 0.6279901 -0.44967023 -0.5147012 -0.5477579
x_44_0.0 -0.007928753 0.56651706 0.08074995 0.78521794 0.6395364 -0.48692074 -0.010231928 -0.7275025 1.1365522 -0.14019093 -0.39946175 -0.9876052 -0.16055144 0.0045502908 -0.2708055 -0.30183223 -0.01178806 0.16054757 -0.1011429 0.48107463 0.1605272 0.04660538 0.41895658 -0.4783869 -0.62237185 0.47314435 -0.6356834 -0.2529837 -0.26945782 0.20799387 1.1166805 -0.044270206 -0.20071049 -0.14559795 0.6633017 -0.22265424 -0.11707094 0.11812194 0.3290357 -0.08228992 -1.4430034 -0.35168687 -0.028805805 -0.13068694 0.07233851 -0.32390988 0.8606446 0.9041645 0.076498896 -0.34606934 1.1425664 -0.1238288 -1.1040958 0.28713787 0.071067326 0.049872093 0.31027356 -0.19112468 0.08187667 -1.270604 0.0062670405 -0.692635 0.06291727 0.38475353 0.69577295 -0.22179489 -0.18227135 -0.120172106 0.9178961 -0.34860933 0.16022679 0.30883288 -0.09897952 0.45708302 -0.07699261 -0.1271539 0.30312726 -0.017006839 0.41768315 -0.48497066 -0.5949228 -0.7728965 0.8130652 0.65263504 -0.65575904 0.25726375 -0.18318692 0.48596588 -0.05991226 -0.91952515 -0.020743921 -0.034128837 -0.32113802 -0.4009568 0.16896449 0.34242666 0.29237068 -0.34232527 0.92818063 0.29414386
x_69_0.0 0.32169852 0.6980942 -0.20612594 1.2048118 0.4281485 0.26498294 0.006253796 -0.03190696 0.8164744 0.42234313 -0.0804162 -0.14436926 0.03806675 -0.35782284 0.27775434 -0.64996856 0.53399515 0.039995696 0.5958892 0.28653118 -0.31960425 -0.41340232 -0.38571355 0.03212149 -0.5483206 -0.07720212 0.08946453 -0.25235763 -0.23585522 -0.15096794 0.64372754 -0.111694336 -0.39822832 -1.6234539 -0.39969411 -0.11764262 0.10944607 0.3014759 -0.10046545 0.393066 -0.21405488 0.4722946 -0.33343813 -0.7311124 0.8602065 0.088812105 -0.052497026 -0.5759247 0.1604615 -0.040841214 -1.0052733 0.4663118 -0.9802247 -0.42739108 -0.09457012 -0.76282066 -0.8157014 -0.3415296 0.4267148 0.35236558 -0.39598376 -0.46993345 -0.054231063 -1.0173211 -0.09543667 0.44222143 0.57436 1.1945212 -0.58686215 0.10255741 0.42179593 -0.33481434 0.13042073 0.498184 -0.9789487 -0.3652399 -0.42631966 0.79487205 -0.3818828 -0.48796463 -0.709672 0.26181257 0.4036581 0.39679945 0.7781663 1.2356886 -0.7924507 0.19373344 -0.25845823 0.0479819 -0.45767897 -0.20587204 0.15182182 0.11298815 0.49200633 0.07923277 -0.22445074 -0.74868697 0.703273 -0.11271508
x_20_1.0 -0.57893765 0.41626242 0.019553257 0.22030607 0.2261787 -0.57067776 -0.14699368 0.30695894 0.80303395 0.55257046 0.33854675 -0.32872975 0.2971172 -0.94016707 0.77232087 0.042298894 -0.23007639 0.7171679 0.15285574 -0.30129853 -0.7354955 0.2089131 0.45674208 -0.10286443 -0.58006686 0.71819556 -0.9000286 -0.9736911 -0.06879329 -1.0278201 1.219854 -0.08999616 -0.48073816 0.6977009 -0.2756342 0.17599624 0.15606217 0.25625044 1.0612235 -0.58714557 -0.7025947 -1.4687358 0.2786921 1.1521423 -0.26480192 -0.06567882 0.8394873 -0.15722819 0.98184395 -0.1258481 0.6800684 -0.0304169 -0.7322394 -0.18149993 0.2784998 -0.53685385 0.10268775 0.50036025 0.388708 -0.6751237 0.5016733 0.45213172 -0.37355673 -0.1743255 0.73119164 0.7572003 -0.1797866 0.3028064 0.1615899 -0.5241399 0.048020303 0.3271261 0.23115075 -0.16123272 0.49971643 0.29516634 0.41222876 0.44146895 0.32013813 0.38641262 -0.33211592 -0.57397366 0.58178115 -0.14076044 0.23875917 -0.43860063 0.44094127 -0.36844802 -0.513034 -1.0444458 -0.71679765 0.61610013 -0.3932008 0.32094797 -1.0449638 0.04165367 0.6666009 -0.42925838 -0.5041366 -0.5453599
x_35_0.0 -0.19296671 0.5839514 0.079030044 0.57860225 0.5679904 -0.6772317 -0.034324266 -0.53748506 1.1327498 -0.100154445 -0.30149224 -0.99783206 -0.02367139 -0.17833841 -0.10760911 -0.12922107 -0.19600186 0.36147442 -0.16927809 0.33182144 0.0047978046 0.19787595 0.5571419 -0.47064763 -0.60476637 0.6022158 -0.8568433 -0.52287704 -0.26131848 -0.08676397 1.2753607 0.030847533 -0.25387913 0.31360933 0.533983 -0.12652248 -0.10347803 0.19543353 0.62486327 -0.3025032 -1.4510273 -0.7954139 0.13663074 0.3178945 -0.107189275 -0.37293106 1.044736 0.8714358 0.37063384 -0.34802172 1.3641882 -0.20594124 -1.0848025 0.2353444 0.1527097 0.0075959396 0.4465466 0.026021246 0.13407408 -1.4148607 0.16102791 -0.4302142 0.011685433 0.39381847 0.85725516 -0.078610204 -0.3140101 -0.20578253 0.9745928 -0.46282884 0.13576376 0.4432678 -0.061603993 0.2975844 0.22995484 0.0444313 0.47536963 -0.0358327 0.49655217 -0.2239308 -0.51712924 -0.8683193 0.8442239 0.5299575 -0.7026038 -0.09370318 0.07726221 0.30192918 -0.21760249 -1.1363461 -0.16956949 0.19475389 -0.4645452 -0.30141196 -0.16989085 0.32265246 0.42586702 -0.29879642 0.5901309 0.12173478
x_56_0.0 0.29900798 0.64693713 -0.013784627 1.3510553 0.80237836 0.11208449 -0.12701298 -0.6555665 1.0892674 0.26893052 -0.36705533 -0.48566362 -0.17414212 -0.011209664 -0.19581461 -0.8097393 0.57917374 -0.046766628 0.3673866 0.5787692 0.0997421 -0.33496624 -0.10026584 -0.17419031 -0.73786366 0.04483177 0.041287113 0.09705799 -0.2832972 0.40051708 0.95749015 -0.3316966 -0.15694468 -1.4501594 0.2719492 -0.3102467 -0.0052257073 0.09721426 -0.16064976 0.42126107 -0.93653435 0.5651776 -0.3528502 -0.90032905 0.6661407 -0.07006621 0.21088001 0.20075257 -0.15913005 -0.17996956 -0.048318677 0.254023 -1.1529183 0.025195595 -0.07269352 -0.4546129 -0.58711755 -0.57983994 0.1964348 -0.27376732 -0.30078694 -0.9319513 0.019114036 -0.32422125 0.03665595 -0.015602448 0.32526037 0.71429193 0.067090616 -0.12167416 0.3221804 -0.17479782 0.056143098 0.74568564 -1.0460297 -0.52416795 -0.31322744 0.5559489 -0.0025535992 -0.79530483 -0.7496719 -0.22641596 0.62607014 0.6985584 0.13801132 1.2735394 -0.7855389 0.50934774 0.0816583 -0.29464218 -0.19030854 -0.44583356 -0.013670971 -0.2937722 0.619753 0.31067935 -0.04133097 -0.5710223 1.2611084 0.21268098
ethnic_0.0 0.34969786 0.6651669 -0.22283038 1.0161235 -0.063374825 0.20119317 0.33655915 0.28291833 0.7118118 0.40380672 0.014855953 -0.18177451 0.0059774173 -0.6509834 0.63200384 -0.3305246 0.33144805 0.02701762 0.59880793 0.040049504 -0.6804043 -0.46667138 -0.464767 -0.037550334 -0.44912815 0.041244496 -0.18369377 -0.52000517 -0.16243966 -0.62590533 0.27366117 0.16537738 -0.7359219 -1.5565647 -0.5696302 0.033092584 0.2096373 0.38699752 0.08451967 0.23690291 -0.02141651 0.08109707 -0.37466052 -0.5760164 0.80411 0.12027111 0.071803406 -0.914317 0.30826905 0.018636292 -1.4697299 0.64074355 -0.8195186 -0.6574001 -0.080515325 -0.704758 -0.5336389 -0.04366915 0.52870125 0.33725673 -0.5313824 0.030201696 -0.046989165 -1.2027161 0.11734833 0.7206488 0.62002677 1.1893486 -0.76395 0.23512612 0.4925298 -0.29369074 0.03840397 0.2818042 -0.54294384 -0.060615856 -0.15809718 0.74354154 -0.6115217 -0.23228146 -0.7531246 0.45650116 0.2608097 0.15866262 1.0833306 0.8995161 -0.68160003 0.11948147 -0.59243995 0.14286952 -0.5370122 0.15623586 0.44294 0.46339795 0.312825 -0.09654753 -0.30124322 -0.9677554 0.26095107 -0.2258526
x_73_0.0 0.31960902 0.6618384 -0.23385212 1.0671655 0.20158818 0.24623092 0.11397493 0.15400136 0.7214706 0.39465046 0.0025797766 -0.11304973 0.06869255 -0.47794423 0.43068907 -0.51292664 0.42817628 0.04633525 0.60378677 0.1522726 -0.45404086 -0.41908196 -0.4380699 0.035323307 -0.4530298 -0.045275785 0.022680592 -0.37147796 -0.20131254 -0.36235476 0.46700764 0.007182774 -0.5072605 -1.5426186 -0.5230032 -0.037977748 0.13814956 0.33603168 -0.030190257 0.33386046 -0.04517606 0.32374257 -0.32330257 -0.61959136 0.8233955 0.11933243 -0.043805994 -0.74250406 0.24989825 -0.011719604 -1.2142514 0.5195796 -0.85845536 -0.5398001 -0.08188536 -0.7443062 -0.7290958 -0.20300485 0.4763591 0.41910583 -0.4241221 -0.23877676 -0.051483136 -1.0999378 -0.043337174 0.56527245 0.59570336 1.1976193 -0.68919986 0.16620025 0.42046964 -0.32899165 0.109138966 0.38057953 -0.7832889 -0.25139472 -0.34632632 0.7638027 -0.4836268 -0.3556631 -0.6802213 0.37999254 0.3095085 0.27014372 0.90540224 1.0584105 -0.7287404 0.11466933 -0.38574848 0.11596337 -0.49573287 -0.050954785 0.2555671 0.2595603 0.40233117 -0.01356444 -0.26230675 -0.78418905 0.45595908 -0.17940505
x_28_0.0 -0.50111645 0.43183944 0.029455613 0.19477633 0.28953174 -0.6613813 -0.12976602 0.06823263 0.8415042 0.2674128 0.11871752 -0.5456881 0.2339712 -0.6677847 0.45396325 0.080048606 -0.30288523 0.62681913 -0.030646762 -0.106167085 -0.47152486 0.27179566 0.54828775 -0.20970233 -0.5184239 0.66714203 -0.91936594 -0.84439725 -0.14560759 -0.73573357 1.2125044 0.0033951842 -0.36214945 0.7664423 -0.030224642 0.11130278 0.041768685 0.2521059 0.9742182 -0.54565483 -0.91844356 -1.3200042 0.30205107 0.9950909 -0.29957655 -0.20229676 0.9349976 0.22027263 0.8266438 -0.19199558 1.0154555 -0.15800944 -0.76831555 -0.024614284 0.2586235 -0.30691364 0.28200018 0.40775326 0.2730788 -0.9764759 0.41310152 0.23078543 -0.23064147 0.07366837 0.78235173 0.43314692 -0.30223948 0.021851476 0.50025773 -0.5207196 0.058928173 0.43583924 0.13759716 -0.06662456 0.5249081 0.26951993 0.50235164 0.20432808 0.39916056 0.27178335 -0.318699 -0.69136107 0.6389869 0.05106958 -0.17449144 -0.47761056 0.41996887 -0.20469943 -0.43017966 -1.0842674 -0.5522127 0.5321959 -0.47571963 0.091702305 -0.8138093 0.14163415 0.59863776 -0.29707557 -0.22683077 -0.33037043
x_64_0.0 0.3256947 0.64558333 -0.10899819 1.2684591 0.6641258 0.23974863 -0.11551936 -0.38509822 0.89898825 0.34505752 -0.24526007 -0.25614703 -0.07736809 -0.111617014 -0.031950995 -0.7750402 0.6028013 -0.035707258 0.48525113 0.46214724 -0.041611444 -0.3778001 -0.26258647 -0.03215891 -0.63009644 -0.080353476 0.1631978 0.022734104 -0.253386 0.21907885 0.7809645 -0.27227542 -0.19749144 -1.5658481 -0.050985146 -0.24425884 0.041637093 0.17864749 -0.20317276 0.4591077 -0.537154 0.64152974 -0.34365538 -0.8745921 0.78365606 0.016067902 0.0076044565 -0.17181735 -0.059612304 -0.10366197 -0.5123114 0.34574714 -1.0160738 -0.16150427 -0.09907565 -0.6172589 -0.7593931 -0.5144862 0.271544 0.10682845 -0.3423514 -0.7635154 -0.0037207678 -0.6496566 -0.11650597 0.14949457 0.462799 0.9410255 -0.27556977 -0.013339117 0.3635607 -0.28075817 0.10667572 0.6552861 -1.0970865 -0.49908897 -0.4327436 0.68026274 -0.17539936 -0.6760891 -0.6854332 0.021986244 0.4857007 0.5568416 0.4413917 1.3213965 -0.80884343 0.36240152 -0.019100282 -0.07067317 -0.29729062 -0.40773645 0.04534062 -0.12932606 0.6056672 0.21156693 -0.15299201 -0.5998259 1.0313601 0.06513105
x_68_0.0 0.32075483 0.65891105 -0.18626568 1.15735 0.43689328 0.27088445 -0.009649085 -0.06440367 0.7886581 0.39347854 -0.09624831 -0.13709915 0.02764651 -0.31737548 0.22682725 -0.6500613 0.52247405 0.025368504 0.56485134 0.3015425 -0.27095088 -0.40126556 -0.37033495 0.028646812 -0.5298568 -0.09034458 0.12452897 -0.19443883 -0.22116894 -0.09786018 0.6200756 -0.12967443 -0.35746035 -1.569014 -0.35556495 -0.12864554 0.10045485 0.2679354 -0.12814312 0.3962338 -0.22357942 0.5019581 -0.32500857 -0.73064566 0.8269118 0.09109472 -0.060755882 -0.5284191 0.11635004 -0.05018262 -0.9330093 0.44434118 -0.92768574 -0.39150625 -0.08933988 -0.7201747 -0.7997306 -0.357053 0.39895502 0.34167814 -0.38494536 -0.47786245 -0.04115705 -0.93899083 -0.117619164 0.38431063 0.5549782 1.1253988 -0.5493635 0.08747579 0.40330213 -0.32150272 0.12973604 0.50279355 -0.9691422 -0.38346323 -0.4161121 0.7524717 -0.34679142 -0.48948294 -0.6723535 0.23272972 0.3818145 0.40057108 0.7166594 1.2065352 -0.776848 0.20433608 -0.21323663 0.054127395 -0.427714 -0.23058666 0.14257386 0.081516735 0.5001381 0.075302675 -0.2146226 -0.70287347 0.71638465 -0.08973325
x_49_0.0 0.16193779 0.5957274 0.076829344 1.1049175 0.7751922 -0.24232064 -0.044134814 -0.8666703 1.1841545 -0.031944644 -0.45802236 -0.8753016 -0.2392379 0.12018887 -0.3732339 -0.5659347 0.26624945 0.002754892 0.05113707 0.5922573 0.24890165 -0.121314935 0.22848007 -0.4089527 -0.6947555 0.31006467 -0.34409815 -0.010531469 -0.2758876 0.44631106 1.0620921 -0.18272127 -0.14812028 -0.74276936 0.6753124 -0.30914778 -0.09885033 0.05680716 0.049162965 0.16886601 -1.38799 0.11554179 -0.20176739 -0.5855997 0.32165536 -0.24106106 0.6171817 0.79038465 -0.154035 -0.31440848 0.77196825 0.017918725 -1.1678948 0.2785528 -0.004540749 -0.06846421 0.0022232654 -0.43743917 0.08027448 -0.98083735 -0.14462924 -0.93632424 0.08337198 0.23474762 0.44511113 -0.2483185 0.015972413 0.13526866 0.69606155 -0.2598077 0.22689356 0.10489691 -0.08166981 0.65711373 -0.5178963 -0.34663188 0.054755922 0.15424979 0.2926657 -0.7363576 -0.7030413 -0.6176274 0.77671033 0.76996446 -0.44038653 0.7474725 -0.49259067 0.60456544 0.08662412 -0.67714596 0.0034966038 -0.28693166 -0.17333516 -0.46096316 0.46301898 0.38467002 0.15313835 -0.42872795 1.2544137 0.36821482
highestEdu_-999.0 0.31711382 0.5815206 -0.1867476 0.8763664 -0.13798602 0.15279038 0.35778832 0.29462153 0.6484381 0.37761518 0.035961077 -0.19125322 0.005715144 -0.6479523 0.63804954 -0.23121576 0.2601367 0.020218285 0.5220517 -0.015411121 -0.69006693 -0.4302776 -0.41369346 -0.053604208 -0.3946634 0.085104935 -0.24135649 -0.5233488 -0.14787851 -0.6632552 0.21146427 0.17710947 -0.7170058 -1.3527954 -0.5281747 0.064787336 0.21602759 0.35368872 0.15638797 0.15801692 -0.03878671 -0.055392236 -0.33836022 -0.45911998 0.69785315 0.112247676 0.12345329 -0.85917616 0.31369162 0.019303089 -1.3516241 0.5919915 -0.7201236 -0.6250609 -0.053362872 -0.61667955 -0.4043179 0.035321027 0.48058748 0.2455928 -0.4835737 0.13138531 -0.048845273 -1.0908009 0.16880405 0.70257217 0.5287087 1.0493591 -0.69988114 0.22062002 0.4512656 -0.2333927 0.031370062 0.21755333 -0.3754543 0.010717638 -0.06813632 0.6715856 -0.5705084 -0.14896448 -0.6830853 0.4113386 0.22510499 0.089758344 1.0013309 0.7348125 -0.58184344 0.094293244 -0.5920112 0.10379161 -0.5074316 0.22219056 0.44040918 0.48659217 0.22439285 -0.10537866 -0.25501704 -0.90777373 0.16360165 -0.22672129
x_27_0.0 -0.5240082 0.4311676 0.035080105 0.20590499 0.28998202 -0.65660214 -0.13672212 0.09125472 0.8343538 0.3065945 0.15576741 -0.5099205 0.23794626 -0.70169675 0.50622207 0.07537428 -0.29744148 0.64675516 0.007328045 -0.12645702 -0.49938774 0.26683363 0.5414685 -0.20319417 -0.53028667 0.6680526 -0.91635823 -0.86082906 -0.13264751 -0.7785675 1.222974 -0.010690711 -0.3780931 0.7618187 -0.054046974 0.1263733 0.066708215 0.24038193 0.9912442 -0.5622519 -0.89571863 -1.3389113 0.28949952 1.0187452 -0.29347652 -0.18874851 0.9330067 0.17466469 0.8529508 -0.19670163 0.97105825 -0.15466128 -0.7669897 -0.042456973 0.2673028 -0.3448537 0.24579807 0.43072847 0.27745214 -0.9375372 0.43910348 0.2524165 -0.24216244 0.04706677 0.7722045 0.48158696 -0.29074344 0.051392164 0.45258206 -0.53335375 0.049398385 0.41406494 0.15988138 -0.07106386 0.5280996 0.27233985 0.4830487 0.23522116 0.39427543 0.29641333 -0.30601007 -0.68279105 0.6432775 0.02213441 -0.12993573 -0.4808107 0.42425123 -0.22052039 -0.43066722 -1.0960531 -0.5707085 0.53222066 -0.46441984 0.1212679 -0.853059 0.12804617 0.61252075 -0.31315172 -0.26499364 -0.3653258
x_76_0.0 0.32285205 0.62377095 -0.21146938 0.9529482 0.01926946 0.20599541 0.2363577 0.23163252 0.67311573 0.37545854 0.02846137 -0.14988989 0.045749787 -0.5609458 0.5314534 -0.35985544 0.34036562 0.044107217 0.5651435 0.060451724 -0.57176346 -0.42305517 -0.42998698 0.0015287263 -0.41912207 0.0098963 -0.11143094 -0.46039647 -0.16278543 -0.508897 0.3160014 0.11538283 -0.61721236 -1.4371943 -0.5364437 0.02184978 0.18244271 0.35006905 0.061277535 0.23397517 -0.01377495 0.13305406 -0.33372316 -0.53670084 0.7617534 0.121118635 0.020782605 -0.8124769 0.2891517 0.006485793 -1.3060136 0.5555799 -0.7858067 -0.59695125 -0.061711438 -0.6851267 -0.5695351 -0.07619218 0.48129585 0.34081247 -0.45714864 -0.048714012 -0.053327587 -1.1131327 0.056603987 0.6399848 0.57105124 1.1246872 -0.6974493 0.19426751 0.44257927 -0.2796203 0.07624022 0.28007954 -0.5709833 -0.11545996 -0.20879276 0.7127769 -0.5384991 -0.24732621 -0.67847633 0.40146017 0.26441273 0.17694685 0.95458174 0.8873901 -0.64779174 0.093365416 -0.49029988 0.125454 -0.4981694 0.086112805 0.3593576 0.3696568 0.3069948 -0.060673628 -0.26531422 -0.85411817 0.30032906 -0.20638816
x_43_0.0 -0.02921045 0.5813741 0.082651936 0.75355 0.64608514 -0.5374814 -0.0065485328 -0.7162906 1.1653845 -0.17023514 -0.40242487 -1.023869 -0.13872288 0.012485167 -0.28933412 -0.27195352 -0.050544996 0.20066679 -0.13818288 0.4656944 0.16963199 0.093576916 0.45692962 -0.4946015 -0.6088603 0.49403432 -0.68347555 -0.29920766 -0.2755186 0.1901957 1.1649959 -0.011700328 -0.20383443 -0.048708953 0.66959834 -0.21712618 -0.13374658 0.13547726 0.3790587 -0.1328847 -1.4827183 -0.43029714 0.011670937 -0.056804817 0.030297063 -0.3472613 0.9212943 0.9492154 0.12796935 -0.36301735 1.2451973 -0.14828996 -1.1101542 0.2952448 0.08867849 0.06460342 0.36182347 -0.1640076 0.08896788 -1.3423532 0.028735358 -0.67852217 0.06554291 0.41996044 0.74094814 -0.22989891 -0.22163154 -0.17850593 0.9674048 -0.37270525 0.14914519 0.3467347 -0.1002338 0.4433847 -0.004323943 -0.11043314 0.3420535 -0.061194565 0.45961556 -0.44338518 -0.5749073 -0.8116119 0.8342614 0.651718 -0.71056545 0.18345895 -0.12649989 0.47313207 -0.07766533 -0.97942317 -0.029485982 0.009011097 -0.3597451 -0.42043406 0.13542151 0.361646 0.30857328 -0.3135183 0.89787525 0.28353262
unpayIndvLoan_0.0 0.3007688 0.42800516 0.03351604 0.60124063 -0.5527399 -0.063996024 0.7230239 0.21657912 0.6242594 0.31785968 -0.073242255 -0.43295994 -0.2795603 -0.78309506 0.768861 0.19870293 0.012861396 -0.10272261 0.25513288 -0.17686537 -0.91835874 -0.4457066 -0.20893605 -0.297756 -0.42337498 0.3508515 -0.7100875 -0.58138734 -0.06484244 -0.9241033 -0.09216596 0.3407417 -0.9411881 -1.0088443 -0.2075208 0.1657239 0.28848416 0.27061337 0.4146141 -0.12779643 -0.33058122 -0.61853075 -0.3872922 -0.29870647 0.41340363 0.01214463 0.5080132 -0.6884225 0.22396564 0.03748479 -1.2119044 0.6131964 -0.5134079 -0.5358579 -0.004783692 -0.23387209 0.26861638 0.3067697 0.39301634 -0.2945859 -0.5642709 0.6099859 -0.0026217655 -0.75103706 0.5631722 0.7223722 0.34137955 0.5737393 -0.45486897 0.21769619 0.4977238 -0.02337872 -0.18739825 0.065914735 0.24314098 0.43442562 0.4864332 0.42563948 -0.5594285 0.0510654 -0.7271881 0.23228721 0.17793468 -0.10498097 0.9101482 0.23462038 -0.35206896 0.23714708 -0.805952 -0.053505585 -0.3768512 0.5407804 0.74548596 0.73359674 0.023682207 -0.19148988 -0.18647204 -1.0820354 -0.08190664 -0.16193436
x_55_0.0 0.25587106 0.60101664 0.00812958 1.2516215 0.7763418 0.0598895 -0.12318444 -0.6822802 1.0355788 0.21054904 -0.3664607 -0.5159892 -0.19055854 0.028804677 -0.23322481 -0.7413847 0.5177929 -0.04885772 0.29806918 0.56181115 0.13296503 -0.29048964 -0.03766989 -0.20026508 -0.6861258 0.075095475 -0.00935078 0.110161416 -0.26609918 0.4232046 0.93022966 -0.30220267 -0.12062224 -1.2709641 0.3438428 -0.29641047 -0.016339352 0.07484157 -0.13781404 0.373752 -0.9680906 0.482188 -0.31015205 -0.8195042 0.5821878 -0.09403904 0.23888928 0.30478835 -0.16844667 -0.18976401 0.09920534 0.19793507 -1.089386 0.07922499 -0.05788476 -0.37366733 -0.4792091 -0.5376702 0.14515407 -0.37863302 -0.2565011 -0.91090375 0.03494591 -0.20316625 0.08177843 -0.06456439 0.2571555 0.570199 0.16068442 -0.15065731 0.29088843 -0.13284265 0.037271462 0.70815706 -0.93181103 -0.4817573 -0.24409889 0.47067988 0.058517653 -0.7600301 -0.70367384 -0.28805554 0.6140658 0.67286843 0.038825188 1.1477493 -0.69979686 0.5128367 0.10926941 -0.34354717 -0.13811441 -0.41698775 -0.05117511 -0.3157999 0.5772854 0.30924413 -0.009916659 -0.51408756 1.2156358 0.24085283
x_26_0.0 -0.5305425 0.41661215 0.029795181 0.1898367 0.26017112 -0.62562263 -0.13058163 0.15301625 0.807509 0.35700202 0.20475332 -0.46024856 0.25722724 -0.74738246 0.562074 0.07507645 -0.29170024 0.6611026 0.029085163 -0.17529975 -0.56150043 0.2507441 0.50754225 -0.1641486 -0.5208692 0.66673553 -0.89555913 -0.87642854 -0.10964054 -0.82313365 1.1822048 -0.030933738 -0.39964116 0.749278 -0.12195956 0.13797723 0.084032014 0.24777886 0.99542177 -0.5608971 -0.82951885 -1.3522075 0.2931533 1.0419896 -0.28830722 -0.15113923 0.89015776 0.08468566 0.86369824 -0.1755382 0.8913517 -0.12081995 -0.73383325 -0.07059823 0.2610015 -0.38642406 0.21692294 0.45188385 0.29704076 -0.85419583 0.4381208 0.3116347 -0.2778227 -0.0054540993 0.75369143 0.5367538 -0.2597611 0.1136847 0.37558904 -0.5139309 0.042115 0.3971441 0.17339729 -0.09949735 0.5143427 0.27449405 0.47128913 0.27348477 0.35937756 0.3185369 -0.3071138 -0.6379586 0.61059296 -0.015379159 -0.034610756 -0.46746385 0.43689623 -0.26539743 -0.44954807 -1.0623758 -0.6015221 0.5569956 -0.44358772 0.1757515 -0.886485 0.104816504 0.60627913 -0.33931977 -0.33558026 -0.4044188
x_45_1.0 0.028384142 0.54824686 0.09301201 0.8130145 0.650361 -0.44104943 -0.007919508 -0.74864304 1.1272235 -0.13575219 -0.41319352 -0.95496726 -0.17579474 0.049788162 -0.31575778 -0.33047318 0.022468949 0.12561831 -0.10473758 0.49642682 0.2032664 0.03566451 0.38728487 -0.45813745 -0.61122173 0.4326399 -0.574677 -0.20529978 -0.26102933 0.27691576 1.0746793 -0.06330934 -0.16399473 -0.21039356 0.68027455 -0.24457285 -0.119919926 0.09482691 0.26825532 -0.051848505 -1.419814 -0.27492937 -0.044575002 -0.20182964 0.09402876 -0.30998772 0.8093823 0.91136414 0.029060528 -0.34207866 1.1009054 -0.10919121 -1.0830238 0.30568 0.06301914 0.054272085 0.27294695 -0.23694122 0.06433545 -1.2281486 -0.010810683 -0.7314833 0.07783465 0.39663276 0.6425955 -0.24953009 -0.16386683 -0.11750542 0.88949627 -0.3324263 0.15900376 0.27945763 -0.09876423 0.4877757 -0.121878386 -0.17096004 0.26213208 -0.01765172 0.40953648 -0.5175165 -0.5942714 -0.75066006 0.7902801 0.66655946 -0.6504571 0.3156862 -0.22133254 0.5047342 -0.017711557 -0.87389773 0.0024057731 -0.07268768 -0.30224645 -0.42243183 0.22327664 0.3516906 0.26638758 -0.33022165 0.9667279 0.30751127
x_47_0.0 0.101395175 0.56894094 0.08593721 0.96913314 0.7023236 -0.34665585 -0.007707046 -0.81440324 1.1751348 -0.087440036 -0.4318913 -0.9306094 -0.2176656 0.06841211 -0.33521217 -0.44375136 0.14392662 0.07377637 -0.029379588 0.5375738 0.20877615 -0.047058266 0.30852133 -0.4575953 -0.6562597 0.38807297 -0.486149 -0.11860201 -0.27850026 0.3547317 1.0690536 -0.116463214 -0.16989025 -0.4734141 0.7037682 -0.2825688 -0.10014607 0.0647766 0.17904195 0.05645138 -1.4410827 -0.10622082 -0.12266505 -0.4001673 0.18986958 -0.26956803 0.74056816 0.86428595 -0.058845513 -0.33084497 0.9605059 -0.03494743 -1.1372223 0.29358876 0.021909207 0.006836149 0.17039469 -0.33376312 0.07063602 -1.1354411 -0.07469675 -0.83097327 0.07424348 0.32813603 0.57547987 -0.25104985 -0.083506934 -0.0067339167 0.81525934 -0.30589995 0.19369721 0.20280978 -0.08777725 0.5727987 -0.2998708 -0.24913444 0.17361058 0.053133428 0.3583608 -0.6248165 -0.6607764 -0.7023444 0.7977825 0.7261166 -0.5470765 0.5127516 -0.35109842 0.56023514 0.022137953 -0.794086 0.017562145 -0.16135952 -0.22968175 -0.43058273 0.3318209 0.3709006 0.2095361 -0.38850212 1.1131778 0.34444967
unpayOtherLoan_1.0 0.26544696 0.40343106 0.05412252 0.5628053 -0.5320896 -0.09131381 0.70687884 0.18315758 0.622924 0.30980277 -0.08314491 -0.44417828 -0.28667113 -0.76914227 0.7430457 0.21048233 0.00091600354 -0.09406514 0.23546895 -0.18362378 -0.9034115 -0.41161415 -0.18113543 -0.311316 -0.4171228 0.36519063 -0.7286886 -0.5800332 -0.060794666 -0.8926958 -0.06356436 0.33602872 -0.92177975 -0.92140716 -0.17255846 0.15806583 0.29699838 0.2578156 0.42713946 -0.14174122 -0.37071955 -0.64735293 -0.36144203 -0.24917276 0.37033612 -0.007206258 0.531584 -0.6295687 0.2159258 0.023010233 -1.113304 0.5882204 -0.5095984 -0.49689716 0.0035284134 -0.19085616 0.30008072 0.3065948 0.37214497 -0.35097533 -0.52394676 0.6026813 -0.006838959 -0.6969332 0.573444 0.69258153 0.30719543 0.520451 -0.3988526 0.18938449 0.49104467 0.0009732897 -0.18458001 0.06596359 0.28164127 0.45351204 0.52021533 0.4012325 -0.5068822 0.053602614 -0.71811515 0.1769499 0.20080638 -0.09842836 0.8480787 0.19456719 -0.3075973 0.23372667 -0.79512864 -0.09438899 -0.37178895 0.5347549 0.72068846 0.7051805 -0.0031821923 -0.17356989 -0.14606032 -1.0511215 -0.09290894 -0.16187544
x_48_0.0 0.13204788 0.56766206 0.09172911 1.0266246 0.7260514 -0.2914036 -0.0218404 -0.8340743 1.170282 -0.06445004 -0.44739056 -0.90091777 -0.23394169 0.099520415 -0.36153942 -0.49569288 0.20869474 0.031754296 0.010744732 0.5734782 0.22574297 -0.093060635 0.26983973 -0.4290655 -0.66752833 0.34267193 -0.4122488 -0.05871617 -0.27706113 0.40883136 1.0490516 -0.15009151 -0.15690403 -0.61149186 0.68811214 -0.29769924 -0.1016366 0.058911353 0.09651104 0.109563164 -1.392158 0.0181064 -0.17178011 -0.4909867 0.25820503 -0.26429337 0.66778904 0.8223948 -0.10760568 -0.31430325 0.8518902 -0.013296888 -1.1475345 0.2742111 0.015238827 -0.03364622 0.08162743 -0.38228774 0.07785271 -1.0504688 -0.12151174 -0.88508457 0.08522435 0.2733513 0.4932718 -0.24589871 -0.029651312 0.059371226 0.74684364 -0.2729923 0.20092873 0.15674175 -0.08598631 0.6034894 -0.41511345 -0.299186 0.112967774 0.105365284 0.3199064 -0.68047035 -0.674559 -0.65171677 0.77270734 0.7308913 -0.4862107 0.6302537 -0.42756107 0.5914732 0.05711619 -0.73245543 0.017293975 -0.22370598 -0.19863395 -0.44691563 0.4094975 0.3713407 0.17574465 -0.40726247 1.1709325 0.35717294
x_50_0.0 0.17746428 0.54460555 0.07046324 1.0723649 0.7309399 -0.16566345 -0.05122063 -0.7995727 1.1001736 0.007699371 -0.42251155 -0.75819355 -0.22733696 0.09090632 -0.33375022 -0.5668796 0.29935074 -0.012471107 0.09332495 0.56642103 0.21248406 -0.16040298 0.16469052 -0.35934043 -0.6615606 0.24810928 -0.26451457 0.027654093 -0.2674085 0.4351618 0.96257675 -0.20590147 -0.1307333 -0.8180488 0.6026828 -0.2954525 -0.07921777 0.044249862 0.011819169 0.20379785 -1.2471849 0.19051294 -0.21282461 -0.6206828 0.33967814 -0.20034024 0.52415764 0.66974616 -0.16612378 -0.27348396 0.61556387 0.05169963 -1.0902889 0.22757465 -0.013042125 -0.10977066 -0.08920621 -0.44009888 0.07614108 -0.8347453 -0.1607208 -0.8908425 0.068575844 0.15626146 0.355831 -0.20188507 0.053825583 0.19490938 0.5728504 -0.2326553 0.21782455 0.06374387 -0.048286323 0.62968767 -0.5691207 -0.35868147 0.0024026374 0.19477132 0.23778075 -0.7095478 -0.6692602 -0.53058946 0.70262724 0.7098254 -0.32963836 0.787517 -0.50958925 0.5751276 0.093235135 -0.57984847 -0.0039120577 -0.29726642 -0.1379204 -0.4087106 0.46412882 0.34614712 0.10452898 -0.41728744 1.1917177 0.3414384
x_54_0.0 0.25835055 0.6017424 0.028397713 1.2647254 0.7934505 0.024221132 -0.112335086 -0.7454228 1.0789729 0.16803809 -0.40133756 -0.5848371 -0.20696618 0.06319084 -0.28147477 -0.74206805 0.49101195 -0.05753004 0.26397836 0.5988204 0.17431492 -0.28420538 -0.006769585 -0.23604113 -0.70438915 0.10326612 -0.045920316 0.11364194 -0.2738829 0.44700944 0.95588547 -0.29814342 -0.12967303 -1.2237351 0.42044038 -0.3169094 -0.036664538 0.060195085 -0.13097548 0.34978753 -1.0649426 0.46364844 -0.31319427 -0.82980597 0.5468426 -0.113939404 0.30789268 0.3944194 -0.20051695 -0.2176381 0.20698552 0.17415138 -1.1205263 0.122560434 -0.05282129 -0.32015437 -0.40539917 -0.55395365 0.13027127 -0.48710662 -0.24341407 -0.9405981 0.041122507 -0.118104674 0.13137755 -0.105534196 0.23368877 0.51259804 0.26284304 -0.16475353 0.2821774 -0.10052832 0.017567964 0.7129774 -0.89132094 -0.4822247 -0.20962968 0.42088476 0.095510714 -0.78438497 -0.7144858 -0.34593612 0.6502338 0.7150412 -0.046021212 1.1204345 -0.69806534 0.55089945 0.12382581 -0.3952496 -0.10262977 -0.41844854 -0.06000687 -0.3527686 0.581769 0.33564386 0.0036303008 -0.51003635 1.276954 0.27270758
gender_2.0 -0.16447586 0.4137126 0.031624075 0.5259929 0.17618175 -0.17024356 0.0077835913 0.15166797 0.6580632 0.586777 0.22283128 -0.19736849 0.04138116 -0.7151147 0.64103967 -0.18087359 0.08944022 0.34347835 0.3300681 -0.20633417 -0.6080224 -0.07209381 0.04513245 -0.070419446 -0.5587094 0.47570273 -0.4941843 -0.6436179 -0.027535297 -0.7042719 0.76724654 -0.12928568 -0.47754088 -0.19573031 -0.20998444 0.02285282 0.16440158 0.14671761 0.49100086 -0.21421811 -0.4746958 -0.73372114 -0.035077278 0.3909641 0.12694399 0.054402966 0.40768114 -0.32544407 0.500119 -0.077037916 -0.06127597 0.23244332 -0.68140024 -0.27262056 0.09682412 -0.4638224 -0.13270964 0.17804211 0.40674904 -0.20669657 0.20534037 0.15522918 -0.2900244 -0.44071916 0.45516348 0.69570416 0.17462601 0.5534775 -0.18583907 -0.19338791 0.124051124 -0.014560775 0.11138546 0.038137257 0.013325081 0.13599794 0.08260356 0.5552822 0.05763735 0.024749618 -0.43183702 -0.21346211 0.40622538 -0.045556374 0.5658698 0.15477204 -0.02593279 -0.11491455 -0.3827874 -0.58025825 -0.421901 0.3152973 -0.012876032 0.35931015 -0.48275095 -0.047785886 0.3381748 -0.5814995 -0.13600227 -0.36766443
x_53_0.0 0.2418582 0.59376526 0.045410253 1.2364826 0.80593115 -0.03350324 -0.10864093 -0.783844 1.1116964 0.12010854 -0.4196298 -0.63629854 -0.22437295 0.08737715 -0.32099813 -0.720044 0.46245652 -0.050250717 0.21845232 0.5975548 0.2028515 -0.25076914 0.045400452 -0.27288267 -0.7115981 0.14742878 -0.095661454 0.11518257 -0.27567133 0.48376456 0.9858855 -0.2870101 -0.116230674 -1.1425867 0.4932633 -0.3216636 -0.045442663 0.052877355 -0.10354492 0.33317843 -1.1350309 0.40588066 -0.29149556 -0.80191255 0.5054969 -0.13321717 0.36142176 0.50104475 -0.20663211 -0.24395983 0.34022737 0.13068195 -1.1232922 0.16579647 -0.0410625 -0.26098746 -0.32842225 -0.53470296 0.111875884 -0.5780346 -0.22275291 -0.9695215 0.05133489 -0.031891882 0.18333524 -0.15511864 0.17969626 0.427541 0.35743964 -0.1931548 0.2629553 -0.059358057 -0.011733319 0.7129905 -0.8316154 -0.4626395 -0.16945182 0.36691034 0.14066772 -0.7913958 -0.71659213 -0.40724614 0.6724112 0.7380677 -0.14185913 1.0582571 -0.663046 0.562556 0.13587362 -0.44724342 -0.07438756 -0.41053554 -0.08364962 -0.39297208 0.56754035 0.34465402 0.041732345 -0.48405862 1.2955195 0.31084415
x_61_1.0 0.28388909 0.6015523 -0.019104939 1.2666411 0.76431483 0.13079052 -0.1440576 -0.6273893 0.98123264 0.2482533 -0.35288247 -0.41510603 -0.15938286 0.03233388 -0.21415003 -0.7758055 0.57053334 -0.07331452 0.34219733 0.5460713 0.1187885 -0.32582298 -0.110231094 -0.15045437 -0.67368644 -0.0014521042 0.07909405 0.1305429 -0.25858265 0.4048522 0.8769278 -0.31920546 -0.11229495 -1.3833241 0.24202275 -0.3006849 -0.012159747 0.08903029 -0.19055584 0.42752618 -0.8198533 0.5963659 -0.3331848 -0.87231016 0.6437044 -0.055887904 0.1311938 0.19055592 -0.18299659 -0.15835235 -0.08154357 0.22713415 -1.0487989 0.029172037 -0.07964294 -0.43326667 -0.58870155 -0.55679125 0.1676225 -0.19534266 -0.28314206 -0.89453006 0.031572983 -0.3239994 -0.01502116 -0.02955549 0.33286926 0.67421514 0.03717796 -0.09797837 0.3026015 -0.18243912 0.052751258 0.70742476 -1.0228753 -0.51070625 -0.32913497 0.52889264 -0.01210565 -0.7511456 -0.6856909 -0.18988332 0.56119525 0.656042 0.13694984 1.2419482 -0.7462129 0.46692982 0.10320555 -0.2267628 -0.16910331 -0.4558265 -0.022045625 -0.29031342 0.62134784 0.2901 -0.059103668 -0.52143896 1.2094268 0.20177527
x_66_0.0 0.3118296 0.6417674 -0.14698026 1.1969227 0.5468072 0.26407567 -0.07486875 -0.2083595 0.8104158 0.3660815 -0.15987302 -0.17662452 -0.004412782 -0.21307646 0.106935866 -0.7105495 0.5587204 0.000858615 0.5259167 0.3753 -0.15228821 -0.37581077 -0.31648624 0.014200721 -0.5583024 -0.09685707 0.15170908 -0.08320335 -0.23420975 0.053080734 0.6837287 -0.19871038 -0.2672137 -1.540746 -0.22603627 -0.177065 0.06396193 0.22773644 -0.16403893 0.42437544 -0.3411049 0.5697864 -0.32612208 -0.7805996 0.7984779 0.053240776 -0.05643724 -0.3622549 0.030949282 -0.062274914 -0.7305759 0.38517976 -0.95204604 -0.28210488 -0.0931393 -0.67200774 -0.78945845 -0.4344017 0.33857632 0.2589514 -0.35341763 -0.59936804 -0.024659446 -0.80212355 -0.13898829 0.2714812 0.49790594 1.0378287 -0.428391 0.04682787 0.37128845 -0.30630437 0.11871761 0.56270957 -1.0332563 -0.4355144 -0.432663 0.71818584 -0.26227546 -0.5674515 -0.664134 0.1473462 0.4193103 0.4541143 0.58950096 1.2544372 -0.77793014 0.2654454 -0.108107865 0.009045976 -0.36495486 -0.32141584 0.0949248 -0.017518394 0.5430868 0.14021109 -0.182467 -0.62847143 0.84191024 -0.026596555
ncloseCreditCard_1.0 0.2853485 0.48288262 -0.00080819393 0.67059135 -0.49535626 -0.054226317 0.68725204 0.23571292 0.67789805 0.3437706 -0.060559213 -0.4322504 -0.24268335 -0.817332 0.7930237 0.14341825 0.037874218 -0.05170104 0.3080239 -0.17180867 -0.9307399 -0.43588194 -0.23131351 -0.28603938 -0.45638496 0.35408923 -0.70330596 -0.6334805 -0.07421654 -0.9382638 0.0019458104 0.33154604 -0.95635605 -1.0557016 -0.25806528 0.15337116 0.2988611 0.2971957 0.42707336 -0.10852989 -0.33895355 -0.60877544 -0.38143203 -0.2883217 0.46383125 0.009168449 0.5054554 -0.71615994 0.26510063 0.03303576 -1.230605 0.6361493 -0.61169463 -0.57192314 -0.00915296 -0.2963928 0.19479015 0.2874346 0.4356258 -0.26713642 -0.5510653 0.5579158 -0.02389413 -0.8265788 0.56363523 0.7632398 0.37390158 0.6610743 -0.48227736 0.20043316 0.5095517 -0.047816604 -0.15231264 0.09999559 0.1870338 0.4039091 0.44715717 0.49076447 -0.5571509 0.02690088 -0.7661825 0.23890845 0.21622635 -0.07081161 0.9309686 0.29360664 -0.37476176 0.21845506 -0.8279827 -0.08125203 -0.4326734 0.5267218 0.70901096 0.7173533 0.028809063 -0.1829188 -0.17273532 -1.1083416 -0.05830642 -0.19392158
x_14_0.0 -0.5107907 0.38791206 0.02170418 0.22726795 0.20186806 -0.47178438 -0.11610017 0.3035562 0.7161887 0.5544342 0.34932926 -0.24720182 0.25826746 -0.90369165 0.752489 0.016994562 -0.1783196 0.6549012 0.18456993 -0.30998042 -0.7115244 0.15960309 0.37904242 -0.07179129 -0.5450377 0.6430911 -0.79797184 -0.8978189 -0.06115304 -0.9705192 1.0937967 -0.10740824 -0.46085098 0.551354 -0.28846422 0.1665502 0.1624892 0.21960747 0.94522417 -0.523156 -0.6059122 -1.3233709 0.2282483 1.0240622 -0.20478259 -0.021411637 0.72732747 -0.22585854 0.89487475 -0.09873265 0.5161978 0.010816231 -0.6707092 -0.19373894 0.2553166 -0.5328492 0.04581897 0.45235735 0.38164452 -0.5466072 0.45960212 0.4211803 -0.36616337 -0.22743848 0.6575862 0.7389341 -0.11503721 0.3325431 0.07416465 -0.45523933 0.04917368 0.24608493 0.22652689 -0.13905226 0.41910392 0.26654726 0.34338742 0.45007727 0.26015386 0.34193388 -0.308718 -0.4899141 0.5253986 -0.14841525 0.31214538 -0.35889965 0.36643776 -0.34050322 -0.4710902 -0.9190476 -0.6651587 0.56383824 -0.31234777 0.33591902 -0.9545676 0.016157016 0.5959778 -0.43382272 -0.47422117 -0.5207508
x_51_1.0 0.19577876 0.5373019 0.068123125 1.082412 0.7267917 -0.12880799 -0.06721941 -0.7921328 1.0771335 0.02746579 -0.41895616 -0.7348778 -0.23588432 0.108111575 -0.335123 -0.5940257 0.33796725 -0.03310131 0.101446174 0.5686934 0.22464563 -0.16740249 0.14062 -0.34492707 -0.6562534 0.22387573 -0.22086915 0.056568198 -0.25385833 0.44598716 0.945059 -0.2119168 -0.114426345 -0.86032945 0.5872135 -0.3091063 -0.06437943 0.03539978 -0.025499774 0.2214762 -1.2050487 0.22552522 -0.23348147 -0.6460313 0.36504072 -0.1834929 0.47533745 0.6344665 -0.1797015 -0.25847137 0.55662537 0.0650126 -1.0714917 0.23242214 -0.024732044 -0.13578056 -0.13053182 -0.4570613 0.08218379 -0.7632576 -0.16940726 -0.8962905 0.076125525 0.1362369 0.31568176 -0.20952858 0.083084024 0.21624583 0.52683824 -0.21389844 0.21887429 0.04022538 -0.04474624 0.6434968 -0.6111131 -0.37056717 -0.03979576 0.22058886 0.22016455 -0.7202834 -0.6613803 -0.50129616 0.6806361 0.69507587 -0.2949382 0.8271369 -0.5281442 0.5557295 0.116136394 -0.54573363 -0.0063338196 -0.3203989 -0.1141725 -0.41018254 0.48083526 0.35051852 0.092794165 -0.41630465 1.1938803 0.33282182
x_41_0.0 -0.105462305 0.5091578 0.06757309 0.57911754 0.5375635 -0.5602645 -0.027591314 -0.57280266 1.027972 -0.14844945 -0.324786 -0.91227823 -0.078897275 -0.060199358 -0.19064923 -0.16118553 -0.12888958 0.24836244 -0.15561056 0.35950103 0.09093582 0.14475077 0.4679162 -0.43115482 -0.5421713 0.49526963 -0.68869984 -0.3685303 -0.24599437 0.04945986 1.0848024 0.01618976 -0.20100178 0.16533926 0.5539258 -0.14980625 -0.1168703 0.1426499 0.45767516 -0.20722938 -1.3291116 -0.5595815 0.07193903 0.12877478 -0.04812311 -0.33021715 0.89624196 0.8476334 0.21056207 -0.32821333 1.2101493 -0.18413548 -0.9701844 0.25639874 0.09986841 0.054483417 0.385989 -0.05601861 0.081045955 -1.2671283 0.096695155 -0.49774966 0.045463007 0.40153843 0.72047496 -0.16335957 -0.24956492 -0.20126942 0.9052891 -0.37886906 0.11986234 0.36690497 -0.07065296 0.33177152 0.13263018 -0.02112183 0.3825493 -0.06844676 0.43746766 -0.2963428 -0.4770871 -0.77067214 0.755126 0.5384357 -0.6737432 0.016883185 -0.003374215 0.3487247 -0.12941632 -0.96490204 -0.084193975 0.09763415 -0.37972754 -0.34276858 -0.026399205 0.31484932 0.34647608 -0.25446582 0.6659294 0.19018644
unpayNormalLoan_0.0 0.26110297 0.37556422 0.0685781 0.5124652 -0.53834623 -0.0914284 0.7033101 0.16699103 0.57470995 0.27941197 -0.09498219 -0.43706238 -0.29229066 -0.73751765 0.70751196 0.23203138 -0.014151151 -0.10035267 0.19393177 -0.17870434 -0.8653146 -0.4052656 -0.15238939 -0.3095515 -0.3856155 0.3580403 -0.7167048 -0.5463368 -0.056014184 -0.862394 -0.091979034 0.3358068 -0.87578946 -0.8590213 -0.15257564 0.16150594 0.28266948 0.23305956 0.4101544 -0.16161104 -0.36308223 -0.64814943 -0.35332268 -0.2444449 0.34210166 -0.015096608 0.51941663 -0.5904756 0.18384112 0.03524901 -1.0595273 0.55950916 -0.46090782 -0.46691227 0.006046649 -0.15089278 0.33607605 0.30816102 0.34094816 -0.34731406 -0.5133831 0.5984403 -0.0033349516 -0.63172466 0.5712314 0.6520732 0.2727575 0.46597847 -0.36104313 0.17244506 0.46471208 0.01189254 -0.19353843 0.053386305 0.30770108 0.45890224 0.5237719 0.36389706 -0.49492657 0.073412165 -0.6795726 0.1655045 0.171993 -0.10549347 0.79110366 0.15646331 -0.28942144 0.23359156 -0.76772535 -0.09058462 -0.332987 0.53672945 0.7108566 0.688562 -0.008823155 -0.16901505 -0.14776082 -1.0052377 -0.1033379 -0.13491972
x_72_0.0 0.32251886 0.6345281 -0.23383455 1.0426682 0.25006425 0.2760811 0.07951072 0.11720383 0.67537063 0.379952 -0.023616755 -0.09054836 0.07280153 -0.3985994 0.35496217 -0.53765845 0.44971004 0.04151702 0.58549047 0.19147265 -0.37865677 -0.3960688 -0.42446908 0.055398144 -0.43765962 -0.08625654 0.07298351 -0.30276644 -0.2019796 -0.26954433 0.4604412 -0.016384503 -0.44689295 -1.5050936 -0.49750686 -0.06450505 0.11660979 0.31793988 -0.076983854 0.34384567 -0.035832144 0.3945609 -0.31078088 -0.63233113 0.8155138 0.10992115 -0.09236246 -0.70465297 0.19887812 -0.016184287 -1.1411493 0.48149088 -0.82955045 -0.50662875 -0.09004018 -0.73466724 -0.75035137 -0.24600637 0.44183552 0.4345921 -0.4028366 -0.30313346 -0.04569732 -1.0587175 -0.09401842 0.4889457 0.57735026 1.156674 -0.66038924 0.15765515 0.40187687 -0.31982687 0.12200537 0.3835807 -0.82495123 -0.28366107 -0.38237438 0.737846 -0.44438675 -0.36602217 -0.63712084 0.358491 0.29471013 0.28431594 0.83920944 1.0761732 -0.7190922 0.12802434 -0.32221037 0.13140005 -0.4607887 -0.11240093 0.21833809 0.19829985 0.42237678 0.003375719 -0.2563139 -0.7192693 0.49506542 -0.16353858
x_74_1.0 0.33186033 0.6014948 -0.22004364 0.9777986 0.1344696 0.25707313 0.1486807 0.15434751 0.62817484 0.36739242 -0.013014326 -0.08503175 0.04530482 -0.44075334 0.41189054 -0.4365178 0.40165764 0.011930728 0.5646178 0.13707025 -0.4386273 -0.40902254 -0.4361413 0.030717814 -0.3974548 -0.07640501 0.022707174 -0.33673054 -0.1796397 -0.3380269 0.34546646 0.031442203 -0.4956928 -1.4647722 -0.5081783 -0.028442958 0.14019637 0.31285262 -0.05292448 0.31594002 0.004876405 0.31948748 -0.31814608 -0.6088643 0.77592885 0.11456756 -0.06885886 -0.73798543 0.2088912 0.010524687 -1.2211825 0.50944716 -0.76259655 -0.52543527 -0.08553696 -0.68794954 -0.66861457 -0.18495692 0.44013715 0.41705313 -0.4307001 -0.193945 -0.035180017 -1.0625032 -0.054143522 0.5303549 0.5706713 1.1085128 -0.6738781 0.18519393 0.408726 -0.31688598 0.08891794 0.3366566 -0.7086581 -0.21945018 -0.30976367 0.6918073 -0.48078072 -0.31829482 -0.61991304 0.39557308 0.2557921 0.23283888 0.8846788 0.97896594 -0.6875245 0.11470548 -0.37468943 0.15971488 -0.4411836 -0.03863786 0.2763625 0.26561308 0.39748704 -0.033929378 -0.27444586 -0.7560039 0.4070467 -0.16299026
x_25_0.0 -0.5176035 0.38302517 0.03445727 0.16203994 0.23709357 -0.566163 -0.12689395 0.18877438 0.7433767 0.38462257 0.22425936 -0.37849262 0.25347096 -0.7524401 0.56989866 0.07363529 -0.26482227 0.6315319 0.0585792 -0.20360483 -0.567268 0.22492768 0.46780524 -0.13790953 -0.48905826 0.6371067 -0.8429077 -0.8415104 -0.09978847 -0.8221105 1.1142625 -0.04385099 -0.37982666 0.7075105 -0.15210217 0.14864437 0.096300445 0.22135767 0.9486016 -0.5395305 -0.72877467 -1.3028642 0.27808 1.0172102 -0.27021158 -0.12212759 0.81106037 0.010894279 0.8484562 -0.13668646 0.7817026 -0.0953958 -0.6682369 -0.098580174 0.2555927 -0.3948869 0.16865368 0.44043598 0.2954932 -0.75083536 0.43909532 0.33459428 -0.28445506 -0.040541776 0.6981672 0.55249345 -0.22162004 0.13824347 0.29857805 -0.4847495 0.0286498 0.35344094 0.17741634 -0.12041499 0.48410144 0.2727495 0.42619127 0.29707792 0.32700995 0.32082137 -0.27953762 -0.58248216 0.55506045 -0.05985113 0.03305916 -0.44629925 0.41599444 -0.28007928 -0.4325351 -0.9835091 -0.5868215 0.53766984 -0.41167754 0.20451744 -0.8806307 0.07294978 0.5930869 -0.3327139 -0.36384982 -0.40568826
x_62_1.0 0.28540885 0.5951985 -0.046637554 1.2191874 0.70432323 0.16868718 -0.13129392 -0.51473594 0.9372812 0.28228977 -0.29734066 -0.34691763 -0.123638734 -0.042904377 -0.11336659 -0.7577349 0.56336707 -0.037330233 0.39125383 0.50020146 0.05133777 -0.3275366 -0.15543614 -0.106821306 -0.6519786 -0.0048894477 0.089378394 0.07132394 -0.24242236 0.30527762 0.83656603 -0.29018685 -0.1420777 -1.396416 0.12895352 -0.26907623 0.0098711755 0.110729106 -0.17776088 0.41404998 -0.6974595 0.5617162 -0.32616052 -0.8276848 0.6651157 -0.023031965 0.095968336 0.050629262 -0.1044269 -0.13003746 -0.22885904 0.26643637 -1.0116407 -0.04922009 -0.076099865 -0.49539018 -0.63029563 -0.5149879 0.22325167 -0.09171296 -0.28362787 -0.8051847 0.010339408 -0.4247353 -0.029371072 0.060113784 0.35916686 0.75694907 -0.07807414 -0.072048254 0.31343377 -0.21265835 0.067812495 0.66061777 -1.009026 -0.47669393 -0.34683883 0.57251865 -0.06720888 -0.69925004 -0.66991746 -0.11903606 0.525232 0.58827484 0.25098523 1.221141 -0.74406487 0.4074235 0.048944738 -0.17698413 -0.21410507 -0.40879375 0.0005782607 -0.2166384 0.56617355 0.25820327 -0.084142484 -0.5381053 1.0934795 0.14286146
x_71_1.0 0.29897273 0.5875693 -0.195817 1.0205104 0.33481735 0.2559051 0.0011478937 0.006930657 0.66683835 0.35975027 -0.05871432 -0.085459635 0.053279754 -0.31592578 0.24743836 -0.5531801 0.45489687 0.027777353 0.53720045 0.22567046 -0.27461228 -0.36517715 -0.3683261 0.055037957 -0.44977576 -0.09608794 0.10693333 -0.21184675 -0.1853818 -0.14882168 0.5067699 -0.083897784 -0.3431797 -1.4147604 -0.3946263 -0.1038424 0.091051035 0.2623724 -0.11209896 0.36407048 -0.10306646 0.4410387 -0.29591787 -0.63633454 0.7642607 0.09170264 -0.095281266 -0.55711484 0.14739473 -0.021505933 -0.9361313 0.41323003 -0.8131716 -0.39272743 -0.07970542 -0.67423344 -0.738965 -0.29017118 0.37804765 0.37581328 -0.35748893 -0.39029425 -0.045431826 -0.9153419 -0.1144296 0.38695514 0.5246903 1.0452437 -0.55103856 0.10870463 0.36274114 -0.30203313 0.12220834 0.4042427 -0.8421886 -0.32848236 -0.38414848 0.67545056 -0.3611878 -0.39900178 -0.59307635 0.27270377 0.31562826 0.3233898 0.7034935 1.0603143 -0.6962746 0.14307526 -0.2329314 0.09492594 -0.39717448 -0.18035385 0.15001683 0.11321754 0.4302364 0.04534244 -0.21409322 -0.6424433 0.5668689 -0.10968998
x_75_0.0 0.29867342 0.5865952 -0.20151964 0.92510104 0.08364734 0.20231704 0.18485215 0.18203266 0.6369705 0.35030174 0.010940673 -0.13498244 0.042923417 -0.48617807 0.45080107 -0.3850361 0.34812433 0.03641606 0.52713704 0.09580398 -0.48286188 -0.38419157 -0.3923333 0.0023954145 -0.40132275 -0.009220527 -0.0566506 -0.37228173 -0.1667202 -0.41752306 0.35284278 0.06562937 -0.5330065 -1.3636873 -0.4713619 -0.010175372 0.15264595 0.3054217 0.027143603 0.25596616 -0.04281751 0.18261263 -0.30474326 -0.5302321 0.7206146 0.10535216 0.011663958 -0.7231179 0.23704515 0.0036691364 -1.1449049 0.5058153 -0.7476257 -0.52276546 -0.07257247 -0.64893043 -0.573096 -0.1148477 0.43145752 0.32754534 -0.4161003 -0.106075294 -0.050875537 -0.9989963 0.024842346 0.55416846 0.5242038 1.0438288 -0.62650007 0.16955581 0.39425972 -0.27008682 0.0759964 0.29189828 -0.59759474 -0.15296724 -0.22452451 0.6667111 -0.47302464 -0.26101968 -0.6273954 0.3573681 0.25459385 0.19439931 0.861857 0.88278127 -0.6251738 0.11225814 -0.40987086 0.09456998 -0.46089667 0.029771237 0.2877972 0.29745114 0.31628445 -0.030918455 -0.23370911 -0.76612264 0.34595743 -0.17838368
isNew_0.0 0.22202735 0.3228858 0.07255152 0.4557123 -0.46347457 -0.09407291 0.61561966 0.13456 0.52863854 0.26463553 -0.09082722 -0.40396696 -0.27123764 -0.65551966 0.6283157 0.20793198 -0.025375547 -0.078755386 0.1582773 -0.16688761 -0.7697748 -0.3496773 -0.11842156 -0.2752473 -0.36603934 0.34159988 -0.66140723 -0.4771142 -0.038458966 -0.7720331 -0.06958426 0.2851607 -0.7837262 -0.73281085 -0.111608304 0.13630329 0.25408944 0.20480444 0.3950949 -0.16073158 -0.35442933 -0.61231846 -0.30644938 -0.17592068 0.27467266 -0.01253196 0.48791042 -0.4889596 0.17313324 0.020049607 -0.8764614 0.48913044 -0.425251 -0.38837323 0.009737918 -0.11907054 0.31961307 0.27430254 0.30368763 -0.35486487 -0.43116012 0.54248524 -0.014157502 -0.5279573 0.5311051 0.57550347 0.22870216 0.38301146 -0.29808584 0.14534841 0.40308928 0.029322235 -0.1738352 0.04160058 0.28331304 0.41336071 0.4876932 0.3215091 -0.4098652 0.05774036 -0.59499234 0.11758847 0.16017775 -0.090377584 0.6822531 0.11732784 -0.225907 0.2147376 -0.68170464 -0.110433646 -0.29072577 0.47772694 0.6135119 0.6126423 -0.03663004 -0.15185654 -0.09590918 -0.8956711 -0.08860987 -0.12937641
x_63_0.0 0.27445635 0.5783943 -0.072728716 1.1606746 0.6398566 0.18050328 -0.11212374 -0.4113068 0.8568701 0.30426306 -0.24658366 -0.28085384 -0.083539076 -0.08907559 -0.067374535 -0.7060988 0.5345984 -0.03311811 0.4012799 0.44669732 -0.002634435 -0.32862887 -0.18286973 -0.060441453 -0.5934414 -0.039511904 0.11602761 0.037586324 -0.23665372 0.23929754 0.75987613 -0.2720698 -0.16148412 -1.3667159 0.028570645 -0.22830011 0.025938561 0.13814121 -0.16670616 0.39183536 -0.5684409 0.549418 -0.3045975 -0.78062725 0.66839236 -0.00022335426 0.043821137 -0.057452235 -0.0778883 -0.117218815 -0.33791733 0.2796086 -0.9492716 -0.10309477 -0.07449538 -0.5174565 -0.653663 -0.4725218 0.22729032 0.003079702 -0.2914868 -0.7184869 -0.01069515 -0.5008608 -0.07712422 0.105405204 0.37676188 0.79673976 -0.17405187 -0.04873279 0.3162445 -0.22201689 0.08734438 0.5961615 -0.9726835 -0.44893453 -0.36213195 0.57966244 -0.10501985 -0.62427205 -0.6385699 -0.04880794 0.4742709 0.52830553 0.32225275 1.1728184 -0.7189885 0.35572156 0.015520647 -0.13509002 -0.24654439 -0.37835073 0.023399416 -0.15910175 0.5374174 0.2000982 -0.102895714 -0.53285646 0.9722444 0.09013291
certPeriod_631152000.0 0.17417492 0.2664461 0.0677967 0.350673 -0.39531386 -0.09161511 0.519233 0.12096917 0.41974172 0.2046301 -0.07329206 -0.3320591 -0.22739515 -0.54196924 0.5286755 0.19653936 -0.025246538 -0.07345146 0.12703875 -0.13956101 -0.64278835 -0.28172413 -0.087213516 -0.2419885 -0.2967661 0.2927262 -0.5542049 -0.39531314 -0.039521124 -0.6450224 -0.063580506 0.2449714 -0.65390617 -0.57162523 -0.070631415 0.11618163 0.20123345 0.15631284 0.33390245 -0.14269583 -0.29673582 -0.52156115 -0.2452246 -0.14699097 0.22433808 -0.014511411 0.4123998 -0.40180424 0.13828367 0.02446127 -0.7275296 0.38793847 -0.32241917 -0.32965425 0.0021106533 -0.084159486 0.29324695 0.23694572 0.23705539 -0.30834323 -0.3649244 0.46525723 -0.0054073813 -0.42448467 0.4388136 0.46642432 0.17980799 0.29211494 -0.2407715 0.117260076 0.33548424 0.024138164 -0.14439929 0.024818739 0.27056026 0.36092252 0.4216557 0.2459189 -0.34070352 0.06373458 -0.49494356 0.08361914 0.13727438 -0.089518584 0.5630892 0.07006558 -0.18081261 0.17489094 -0.56727135 -0.09347456 -0.23878375 0.40853453 0.51876354 0.51072687 -0.03198488 -0.12091172 -0.08960468 -0.7266522 -0.087823436 -0.09651828
job_16.0 -0.2742605 0.35718855 0.030978156 0.3676114 0.17773913 -0.22579445 -0.047548193 0.24205281 0.6012398 0.5901785 0.3072862 -0.13537353 0.13433063 -0.76640624 0.6842559 -0.12279864 0.0146556655 0.44937027 0.28188837 -0.27683094 -0.6445797 0.012442679 0.1328484 -0.032395188 -0.51256114 0.4895713 -0.53437054 -0.68672544 -0.0030896266 -0.78532606 0.798987 -0.14935465 -0.43402418 0.07734524 -0.27901652 0.07444491 0.18029962 0.13646129 0.60583586 -0.31273445 -0.4107825 -0.8836162 0.057631537 0.61198044 0.0075291297 0.06478975 0.44736612 -0.3353131 0.6204731 -0.0562895 0.07527082 0.1569352 -0.59291416 -0.24122491 0.1382866 -0.47847247 -0.09988026 0.27992192 0.38281357 -0.21196693 0.30843887 0.2765032 -0.32821956 -0.37804475 0.4746685 0.7039725 0.078914195 0.49280143 -0.14323358 -0.25576842 0.06610586 0.054590814 0.1611279 -0.047747236 0.14494583 0.17547575 0.1218255 0.512801 0.112212144 0.13798964 -0.33231992 -0.2578245 0.39737 -0.11704096 0.50611097 -0.03186875 0.12435349 -0.22008212 -0.38248914 -0.63231725 -0.47771558 0.3786286 -0.11039312 0.3642127 -0.6507899 -0.044394914 0.4105161 -0.49363253 -0.31649938 -0.43171027
loanProduct_2.0 -0.10601995 0.37577936 0.023739697 0.48881677 0.17473303 -0.14285958 0.027746106 0.09739231 0.6020635 0.45462126 0.1498661 -0.20803621 0.03707343 -0.5902835 0.5091465 -0.16921319 0.080756 0.28769672 0.2710052 -0.13538857 -0.5124045 -0.07559246 0.049647607 -0.087013386 -0.4847458 0.37371016 -0.4236298 -0.5197332 -0.039393622 -0.57756466 0.657085 -0.09979438 -0.4109449 -0.2425354 -0.17914107 0.023439467 0.13651335 0.13568608 0.42647773 -0.1638382 -0.42718032 -0.5908437 -0.05064479 0.2625165 0.13949347 0.0417893 0.3738422 -0.26472336 0.41368502 -0.07267785 -0.06649424 0.20638226 -0.5970789 -0.2181713 0.06982231 -0.3982644 -0.09193351 0.13731183 0.33703724 -0.20087577 0.11515923 0.11244943 -0.22158386 -0.37946078 0.39394763 0.54562974 0.12934975 0.48610914 -0.13285515 -0.16542552 0.14079925 0.010540979 0.10134602 0.06941859 -0.012967062 0.095680274 0.07904667 0.4487897 0.019319506 -0.013190827 -0.39680815 -0.16701034 0.3749888 0.012303115 0.44343168 0.16899884 -0.055642176 -0.05374573 -0.33656755 -0.46880525 -0.36157197 0.2598579 -0.0005970198 0.27590698 -0.34754142 -0.02236406 0.24912748 -0.5057029 -0.06270505 -0.27594662
x_52_1.0 0.21795939 0.4783994 0.046112128 1.0303323 0.68100274 -0.039805096 -0.071209356 -0.7060777 0.9289537 0.0630225 -0.3769952 -0.57336336 -0.20905185 0.10866621 -0.31906575 -0.58762276 0.3627832 -0.067538805 0.14800565 0.5353083 0.20823398 -0.21049152 0.051613003 -0.24783444 -0.5786343 0.11759006 -0.08590263 0.11146681 -0.24204893 0.4544317 0.8002071 -0.23980084 -0.07968165 -0.9425923 0.47268862 -0.28320986 -0.060724203 0.03289317 -0.11320271 0.27161628 -0.99010503 0.36272985 -0.24067923 -0.70229876 0.40751284 -0.13065682 0.32392117 0.47640765 -0.2181285 -0.20622168 0.3419736 0.09766953 -0.93590117 0.16988228 -0.04015143 -0.16987264 -0.24388179 -0.47927397 0.06995503 -0.54884535 -0.20165028 -0.84011126 0.059688225 0.030728776 0.16543308 -0.17883329 0.12637618 0.309061 0.35854456 -0.15869617 0.21326926 -0.037768412 -0.019395562 0.6160975 -0.68052083 -0.39437956 -0.11854828 0.26173174 0.14377145 -0.6846065 -0.59192616 -0.3711321 0.57781297 0.6335603 -0.18503496 0.86848974 -0.5445875 0.5059457 0.12924626 -0.38310328 -0.021970665 -0.3639306 -0.07186566 -0.3695483 0.5123284 0.302656 0.02668758 -0.38124 1.1197387 0.29894838
x_67_1.0 0.2860802 0.55640006 -0.14781754 1.0300965 0.43353373 0.25432754 -0.0437645 -0.13347828 0.68596196 0.3256728 -0.12586945 -0.11855504 0.009053764 -0.20441525 0.123095155 -0.59726506 0.482914 -0.0036219782 0.47542813 0.28992897 -0.16468902 -0.34347382 -0.31620148 0.02177824 -0.47007817 -0.096341215 0.14256929 -0.089810975 -0.20096126 0.020207863 0.54988754 -0.16071235 -0.25854978 -1.3870108 -0.2539798 -0.14900476 0.056453615 0.21165338 -0.14839804 0.38574582 -0.21897113 0.51635647 -0.2954052 -0.6901742 0.7209016 0.06802748 -0.08559299 -0.38175157 0.054398768 -0.04314576 -0.74044585 0.35797688 -0.80366117 -0.28593215 -0.082094714 -0.6065187 -0.7128801 -0.35625494 0.31047535 0.28750777 -0.32263672 -0.49669856 -0.03250458 -0.7624027 -0.13731563 0.26847503 0.46253628 0.9423285 -0.4317029 0.06427481 0.3255292 -0.27724934 0.10250233 0.4611649 -0.8947169 -0.38028926 -0.38730323 0.62147355 -0.2683252 -0.47010708 -0.5684431 0.18873273 0.33800313 0.3834073 0.56537104 1.0986029 -0.69443834 0.21301498 -0.11697685 0.05601725 -0.32220814 -0.25885123 0.096336015 0.015457115 0.48129815 0.09866202 -0.19003049 -0.5660634 0.7003601 -0.03813796
x_65_1.0 0.2617779 0.5791445 -0.10872288 1.0947835 0.54922295 0.1892628 -0.09797073 -0.27484092 0.7885029 0.31607336 -0.18547185 -0.22081591 -0.040533178 -0.14649282 0.030731855 -0.6582939 0.5035423 0.00647031 0.43558004 0.38051206 -0.08296975 -0.31997573 -0.23211244 -0.02724537 -0.54448026 -0.049830172 0.11243646 -0.04751734 -0.22158924 0.12765457 0.6929727 -0.21135426 -0.20824315 -1.3409517 -0.1015977 -0.18560201 0.04723657 0.17670438 -0.13961875 0.3795736 -0.42954668 0.4938803 -0.28979483 -0.70516264 0.67795444 0.029226534 0.002896648 -0.19218013 0.007118317 -0.07822018 -0.4774741 0.29795006 -0.89228857 -0.17574967 -0.071052514 -0.5603131 -0.6697294 -0.4041116 0.27153066 0.11390993 -0.2867549 -0.6166469 -0.020435948 -0.61489 -0.0876825 0.18112677 0.41428173 0.8555655 -0.27219495 -0.009165145 0.31504333 -0.24354622 0.09728929 0.5388667 -0.917729 -0.40969044 -0.36208475 0.6050007 -0.17097324 -0.5552906 -0.5972747 0.040522106 0.43059805 0.46985045 0.41256672 1.1243964 -0.6898424 0.27637133 -0.05404408 -0.07659033 -0.29443398 -0.314713 0.033648 -0.07953146 0.483098 0.1690072 -0.12459186 -0.54738766 0.849809 0.03091055
x_46_0.0 0.043228745 0.50575554 0.08164878 0.78935605 0.590729 -0.35664546 0.0014124779 -0.66600966 1.0244036 -0.06721086 -0.35830903 -0.8317854 -0.16331504 0.001948052 -0.23273319 -0.32896256 0.075224735 0.101648465 -0.034185752 0.43592027 0.12786156 -0.014987868 0.3065901 -0.40178362 -0.58697724 0.39078268 -0.49124312 -0.17668608 -0.23042262 0.20551303 0.97146106 -0.07368276 -0.18113083 -0.30769798 0.580863 -0.21276441 -0.09048431 0.0861106 0.2394182 -0.019194933 -1.2552869 -0.22307806 -0.07774866 -0.22559266 0.133129 -0.24951047 0.71016556 0.72915536 0.019809373 -0.2886157 0.87598723 -0.04909252 -0.99312204 0.23860604 0.041618403 -0.012852257 0.19489302 -0.22353493 0.09226453 -1.0401921 -0.030781282 -0.64160883 0.05616717 0.2842089 0.55633533 -0.16111803 -0.09008733 -0.020320168 0.72955126 -0.28389218 0.1676922 0.21590264 -0.07904039 0.45203817 -0.1666722 -0.15326874 0.20985839 0.050461978 0.32992828 -0.48091027 -0.5681814 -0.6366166 0.7106806 0.5832751 -0.480687 0.3618518 -0.23586708 0.4541277 -0.034839638 -0.7554371 -0.03195149 -0.07628918 -0.21848795 -0.3468195 0.20567869 0.31283227 0.22625878 -0.34285936 0.87627685 0.2664728
x_46_1.0 0.0739819 0.44098663 0.06897577 0.73261493 0.55535185 -0.2808161 -0.024349859 -0.6433438 0.8898557 -0.100996554 -0.35691965 -0.739892 -0.16210438 0.081184275 -0.29256344 -0.33692238 0.09912816 0.043959215 -0.043237068 0.43886787 0.18999568 -0.025987891 0.24848036 -0.35941693 -0.49988914 0.29811695 -0.36257756 -0.07577789 -0.21332087 0.2896004 0.82803357 -0.082590185 -0.11539905 -0.3377428 0.56162095 -0.21361916 -0.09493674 0.053578835 0.12132635 0.039607726 -1.1205724 -0.07072119 -0.086951606 -0.30576664 0.14648351 -0.22289908 0.5781062 0.70614785 -0.05264917 -0.26697338 0.77762544 -0.04482156 -0.8659374 0.24272873 0.018153373 0.016176362 0.1361859 -0.26730064 0.04549916 -0.9000762 -0.05960035 -0.653229 0.067015715 0.2758254 0.43867016 -0.21544261 -0.0752329 -0.03133873 0.66343194 -0.23548405 0.13662691 0.16209039 -0.076694414 0.4388632 -0.2257161 -0.19323267 0.14505707 0.021120843 0.2885155 -0.48599443 -0.49360257 -0.5553249 0.6177106 0.5638967 -0.46341035 0.38024503 -0.2582778 0.44897506 0.031421997 -0.6201982 0.017377922 -0.13512906 -0.1851464 -0.35490087 0.27594727 0.28590333 0.16730914 -0.27925467 0.86475796 0.28218442
x_65_0.0 0.27063528 0.5528576 -0.10531838 1.049441 0.49984956 0.21233556 -0.06908615 -0.24224757 0.7205372 0.3139454 -0.16365151 -0.17023371 -0.0431819 -0.13847703 0.035843935 -0.6221195 0.4992341 -0.019378675 0.42849037 0.35313892 -0.08664397 -0.33819652 -0.24994305 -0.0033089423 -0.5005509 -0.08072702 0.14374217 -0.0354654 -0.21313788 0.11113619 0.617643 -0.20258544 -0.20552696 -1.3407295 -0.12533459 -0.17593026 0.042582188 0.1753778 -0.16415688 0.37821025 -0.36410096 0.52891904 -0.28924322 -0.71771485 0.6855438 0.04510502 -0.029549845 -0.23777449 -0.011161492 -0.065780506 -0.5626339 0.3091676 -0.8327122 -0.19738561 -0.07346363 -0.54487896 -0.67689216 -0.3973275 0.26182246 0.16578177 -0.30634958 -0.5796767 -0.017176032 -0.63141125 -0.112570435 0.18436305 0.4238445 0.86375344 -0.31058154 0.020236192 0.32162338 -0.26374134 0.094166555 0.5091872 -0.9085744 -0.39419472 -0.36865774 0.6024298 -0.20168297 -0.5242482 -0.5802228 0.08583645 0.38055673 0.43903935 0.44093573 1.0951949 -0.68011206 0.26689503 -0.058526084 -0.025769124 -0.27961743 -0.304564 0.067549065 -0.067634426 0.49564892 0.13733971 -0.14496474 -0.5349946 0.7964957 0.024408663
x_67_0.0 0.26358324 0.57142335 -0.15455909 1.0175681 0.41856396 0.21989262 -0.03174803 -0.10382031 0.6966623 0.33443984 -0.103975825 -0.13484585 0.01048807 -0.24111608 0.16173619 -0.58222824 0.4658618 0.022088004 0.4716912 0.27525637 -0.18953344 -0.33644488 -0.29798394 0.016117226 -0.48053083 -0.077173874 0.114123575 -0.13673991 -0.19720158 -0.03775178 0.57018286 -0.14454128 -0.27908927 -1.3420053 -0.25757557 -0.13382134 0.06522752 0.21976535 -0.112448454 0.34770715 -0.23210624 0.4454211 -0.2788396 -0.63803566 0.7012421 0.06363917 -0.03953869 -0.400412 0.08203924 -0.053402472 -0.7317273 0.3493051 -0.8139157 -0.2905519 -0.07481991 -0.6117209 -0.68664676 -0.3269706 0.32473987 0.2598442 -0.3196905 -0.45346078 -0.03193956 -0.7598522 -0.09811461 0.2996615 0.46033603 0.9472898 -0.42441761 0.060899045 0.33397257 -0.2678774 0.10962382 0.4587078 -0.8511697 -0.34518746 -0.36316192 0.63779986 -0.265544 -0.44566885 -0.5803018 0.17042358 0.3418912 0.3623705 0.57221013 1.0558726 -0.6597952 0.19592255 -0.14607699 0.016780071 -0.35451856 -0.22858937 0.09573622 0.03355139 0.435493 0.092705354 -0.1697432 -0.5810037 0.6547486 -0.063320056
x_52_0.0 0.18491583 0.5450144 0.051464614 1.063579 0.65648985 -0.10655933 -0.03461327 -0.67658526 1.0402058 0.09762456 -0.36359167 -0.6554077 -0.20728905 0.0040209065 -0.2116284 -0.56093264 0.3331137 0.00047114852 0.1552658 0.49086794 0.10837913 -0.1943828 0.08445006 -0.29544726 -0.6465019 0.22373153 -0.23277898 -0.0065507237 -0.2453758 0.31215957 0.9107385 -0.19788253 -0.17850064 -0.898727 0.45885825 -0.25687337 -0.032330956 0.06062086 0.018396031 0.20392355 -1.0873982 0.17256346 -0.23701337 -0.5892149 0.37969986 -0.14977056 0.4400567 0.46253586 -0.10920834 -0.23084861 0.379425 0.12471849 -1.0337213 0.13076884 -0.014527431 -0.1971003 -0.16708112 -0.4025622 0.13067576 -0.64998716 -0.1690947 -0.7716141 0.029888371 -0.011036467 0.29832035 -0.08506061 0.12328791 0.32861772 0.38127288 -0.18956985 0.24257547 0.012018251 -0.034417182 0.5881794 -0.5868232 -0.32626736 -0.033248745 0.2830357 0.15200911 -0.6496056 -0.66507137 -0.41298833 0.6488323 0.6230731 -0.1494275 0.82280356 -0.5128071 0.5021543 0.040535882 -0.49021763 -0.0870861 -0.2602844 -0.06327373 -0.30216676 0.4261095 0.30460405 0.085061885 -0.4720712 1.0725424 0.25888178
x_63_1.0 0.24651192 0.5219743 -0.07189935 1.0279028 0.5523704 0.16202289 -0.08679117 -0.35906368 0.7633106 0.25746635 -0.22385608 -0.25918138 -0.08165424 -0.07953604 -0.046034344 -0.627936 0.47124347 -0.022734996 0.36488387 0.39009616 -0.017076664 -0.2892427 -0.17251267 -0.065463215 -0.53055716 -0.022637207 0.08560621 0.011236524 -0.20670196 0.19287123 0.67392546 -0.22595115 -0.16389851 -1.2171566 0.024913376 -0.20575954 0.027827721 0.12769638 -0.1358519 0.35466453 -0.5028681 0.46119624 -0.27529946 -0.68194634 0.5879141 -0.00648909 0.053652864 -0.06276469 -0.048357453 -0.10375234 -0.3150114 0.25893632 -0.85334873 -0.09842582 -0.06855829 -0.4542853 -0.56344783 -0.40900487 0.21946114 0.0070319376 -0.25245377 -0.625184 -0.009459774 -0.4563704 -0.055125907 0.09924566 0.3450193 0.7114777 -0.15054895 -0.029168453 0.27639446 -0.19482167 0.066531025 0.52243376 -0.8534144 -0.39680302 -0.31539336 0.5077246 -0.102246866 -0.5501981 -0.5755989 -0.03343478 0.42204368 0.46207225 0.2914731 1.0344743 -0.63524723 0.31273073 -0.0021637387 -0.11004057 -0.21869807 -0.32058695 0.032002933 -0.12803362 0.47054058 0.17841068 -0.090835914 -0.49550784 0.86098677 0.07270109
basicLevel_2.0 -0.3545615 0.32442155 0.024879267 0.27752694 0.16147679 -0.30875802 -0.061894044 0.24896096 0.58729136 0.5247091 0.3011108 -0.1704192 0.1771567 -0.759329 0.64784133 -0.049611423 -0.0739631 0.4940979 0.21424805 -0.27353853 -0.61426854 0.068208516 0.21207054 -0.052175257 -0.47921616 0.5130209 -0.60138565 -0.70838517 -0.027795212 -0.7941693 0.8322964 -0.108672105 -0.41531193 0.2637519 -0.25661418 0.10574784 0.16008607 0.16435455 0.6881882 -0.36332566 -0.44720125 -0.98970336 0.11088202 0.72353333 -0.082544886 0.02713086 0.51369053 -0.27545583 0.6747391 -0.068534896 0.24160859 0.091112226 -0.5588746 -0.21206656 0.16806076 -0.45778313 -0.020876208 0.32498288 0.34688622 -0.32837075 0.33248797 0.32407904 -0.3088467 -0.27774507 0.50441027 0.65620226 -0.0063155345 0.382181 -0.05343107 -0.30675527 0.049501233 0.13293874 0.17304571 -0.091498256 0.25006983 0.19354625 0.2080663 0.43349108 0.14998879 0.21832277 -0.3004761 -0.32069242 0.4054113 -0.13077168 0.38650155 -0.15915361 0.20643362 -0.24887525 -0.39249095 -0.6812503 -0.5148234 0.4276456 -0.17821468 0.32117224 -0.7221168 -0.012489617 0.45106667 -0.42597666 -0.35954562 -0.4216307
x_33_3.0 -0.2977363 0.33737674 0.042333037 0.18929827 0.29914775 -0.52335113 -0.082809605 -0.15890215 0.66925377 0.028946064 -0.05645343 -0.55313087 0.09122363 -0.28965718 0.114919 0.032883264 -0.2289823 0.3781389 -0.111191325 0.0693586 -0.15408167 0.21128733 0.44078523 -0.24055317 -0.37096834 0.46873555 -0.654076 -0.49345383 -0.14273646 -0.29465032 0.8913698 0.020408086 -0.18845199 0.53369325 0.19762664 0.015195998 -0.03757483 0.14868398 0.60607225 -0.34033906 -0.8436735 -0.81796426 0.19371267 0.55954874 -0.20650743 -0.2184615 0.73524296 0.44233492 0.45293552 -0.19749089 0.9654336 -0.1831154 -0.61889225 0.10733959 0.16533151 -0.07136648 0.31047338 0.1911635 0.11707677 -0.9050758 0.2515717 -0.04402905 -0.080530085 0.23797011 0.6034106 0.103529185 -0.27052242 -0.14653552 0.58723164 -0.37005302 0.036567464 0.35843354 0.037485905 0.05204936 0.34351003 0.13848683 0.3888897 0.0030512745 0.36546582 0.062663764 -0.24519277 -0.59574395 0.5292932 0.18535951 -0.3896916 -0.30607998 0.25207573 0.00958165 -0.22486492 -0.83827704 -0.24860267 0.28844216 -0.38409692 -0.09396569 -0.39843333 0.169227 0.4058625 -0.15318906 0.073262475 -0.08081248
isNew_1.0 0.17527293 0.3360448 0.050829004 0.4613205 -0.32941744 -0.09812723 0.49335262 0.10315047 0.53429174 0.25775263 -0.0670561 -0.37557864 -0.20810488 -0.58698565 0.5504305 0.1359445 -0.008848663 -0.034288958 0.16301692 -0.1203746 -0.66927487 -0.29139352 -0.08568579 -0.24463624 -0.37265018 0.32087243 -0.5908321 -0.45099863 -0.048276313 -0.67512536 0.05491548 0.22214673 -0.6855482 -0.6449228 -0.102658376 0.11149705 0.21042089 0.19708861 0.36592463 -0.13510995 -0.3649174 -0.5485052 -0.26100367 -0.13388233 0.2598898 -0.022411415 0.4509738 -0.41017228 0.18750669 0.0011376281 -0.7085609 0.41865376 -0.45456383 -0.34461114 0.015176711 -0.15292913 0.23899084 0.22205873 0.2874393 -0.3384134 -0.3547267 0.41980362 -0.024694765 -0.47674546 0.48268807 0.5195818 0.20012234 0.37100115 -0.24060166 0.09511587 0.35621095 0.019489363 -0.13395382 0.070655905 0.2057207 0.32926285 0.39961657 0.31643516 -0.32431322 0.03364916 -0.5586288 0.05721386 0.20253615 -0.04218869 0.58608526 0.14067067 -0.21785526 0.17687899 -0.59242386 -0.16124724 -0.28867996 0.40541542 0.4929369 0.500805 -0.037702918 -0.10804039 -0.050453544 -0.7909891 -0.03869375 -0.12594278
basicLevel_1.0 -0.36827034 0.360055 0.0311125 0.30472222 0.16867878 -0.33473685 -0.06095066 0.2663759 0.6570305 0.55763245 0.30893093 -0.20092455 0.1756661 -0.8156664 0.70638293 -0.050848857 -0.08029625 0.5152621 0.23141143 -0.28314245 -0.67205006 0.06251807 0.23177993 -0.055456538 -0.5199433 0.55312616 -0.65526557 -0.76088464 -0.035121273 -0.856663 0.89634573 -0.114117324 -0.46165574 0.25459138 -0.27466944 0.11507244 0.17333642 0.17889595 0.74829566 -0.38820654 -0.49587542 -1.0597073 0.11653527 0.7660245 -0.083077215 0.027319433 0.5656591 -0.2932597 0.7209808 -0.07556604 0.24377263 0.109375805 -0.6216582 -0.22281215 0.18821767 -0.48736992 -0.0118167065 0.35106242 0.38063654 -0.36232123 0.34503487 0.34615794 -0.33490193 -0.30463967 0.54804933 0.7100634 -0.009373501 0.41567442 -0.048169576 -0.33546114 0.06974109 0.140093 0.1809684 -0.084572606 0.2656184 0.21409152 0.24041858 0.47637218 0.15948465 0.21904166 -0.34028167 -0.3434971 0.43943837 -0.13500613 0.42327297 -0.16853994 0.2137592 -0.2545187 -0.42448202 -0.7358667 -0.5510947 0.45833507 -0.17532657 0.352447 -0.76344174 -0.012284382 0.4678781 -0.47740415 -0.36027616 -0.45033577
x_75_1.0 0.24581878 0.5105331 -0.16204092 0.80251586 0.067584634 0.14684129 0.16023825 0.1569129 0.5840962 0.31626993 0.012653009 -0.13296613 0.030533383 -0.45635286 0.4135225 -0.31587717 0.27344397 0.04469483 0.4462313 0.057852026 -0.45356902 -0.33030692 -0.32432756 -0.011411834 -0.3637506 0.028265871 -0.102748804 -0.3709741 -0.13530757 -0.39398953 0.33743215 0.05876069 -0.49121127 -1.144874 -0.4156188 -0.007800204 0.13394222 0.28312203 0.058952264 0.18861818 -0.07622126 0.10211316 -0.26173148 -0.4202542 0.615143 0.08126534 0.042729083 -0.6167467 0.23785439 -0.005334546 -0.96072584 0.4411349 -0.6794608 -0.44866794 -0.052781034 -0.5627557 -0.46050522 -0.079937525 0.3852562 0.24043047 -0.34513453 -0.07487583 -0.05382706 -0.86960745 0.07150334 0.50138605 0.4442583 0.8997356 -0.5161582 0.12846461 0.35043052 -0.20967083 0.06083316 0.23976979 -0.47923133 -0.11540957 -0.16879117 0.57051474 -0.39647284 -0.21318106 -0.5550375 0.27990982 0.24633725 0.17289011 0.73691505 0.73645306 -0.52723444 0.08497602 -0.39256775 0.046495583 -0.4019356 0.058138944 0.23960356 0.28138012 0.24630202 -0.031755034 -0.1845583 -0.68418723 0.27758315 -0.15761378
weekday_6.0 0.23159873 0.38296798 -0.012436489 0.545551 -0.3422221 -0.019720221 0.49535084 0.18609664 0.5296553 0.26774287 -0.03172755 -0.31856477 -0.15189739 -0.6115344 0.58448374 0.062267445 0.054877363 -0.040309574 0.25966272 -0.11890341 -0.68444544 -0.3453542 -0.19933887 -0.19186427 -0.34535792 0.24397992 -0.49488482 -0.47613654 -0.07137368 -0.69008774 0.032373164 0.23713706 -0.706855 -0.8531319 -0.23069067 0.107966594 0.22002986 0.24001396 0.30109757 -0.054524064 -0.23261113 -0.41046607 -0.294728 -0.24607688 0.38311052 0.015390848 0.3536341 -0.56965977 0.2182654 0.022230005 -0.9585626 0.4818932 -0.47586113 -0.43534604 -0.008755518 -0.26593494 0.08172715 0.19122046 0.33201727 -0.15748681 -0.41917259 0.382971 -0.025754545 -0.6666837 0.38550884 0.5694453 0.3043555 0.55592304 -0.38776526 0.1538499 0.39155456 -0.054023635 -0.09781485 0.08384356 0.07686547 0.26214358 0.28410682 0.39657354 -0.42522392 -0.0009965452 -0.58237094 0.20036782 0.18008634 -0.037107497 0.7297217 0.27741277 -0.31045517 0.15628424 -0.60468215 -0.045811165 -0.33748144 0.3808906 0.5242138 0.5204627 0.033826407 -0.12121245 -0.14336994 -0.8353741 -0.009810664 -0.14491127
x_71_0.0 0.22947034 0.5140746 -0.17036654 0.83891326 0.26213345 0.20194352 0.026579093 0.050918747 0.5695497 0.30987796 -0.021704331 -0.087494805 0.05635949 -0.30170372 0.25036705 -0.4516387 0.3754079 0.0516029 0.45575348 0.17960738 -0.26100257 -0.29323062 -0.31582934 0.036275137 -0.38009828 -0.06019393 0.066038236 -0.21821593 -0.16516776 -0.1815208 0.4279132 -0.054974575 -0.31486845 -1.1751252 -0.350236 -0.06789292 0.08691314 0.23365748 -0.05361712 0.28801003 -0.09040044 0.3088045 -0.23898222 -0.49832547 0.632748 0.08971441 -0.06287649 -0.5038062 0.1560651 -0.014660183 -0.8122167 0.35430703 -0.6858216 -0.3591253 -0.06130639 -0.57843065 -0.61650246 -0.2055572 0.34087127 0.31768706 -0.2905355 -0.28034946 -0.04148472 -0.7951238 -0.07443663 0.363828 0.435678 0.8929978 -0.48577636 0.09904846 0.3137603 -0.25182787 0.09692432 0.33637062 -0.6784937 -0.24671276 -0.31132793 0.5848369 -0.31958443 -0.31283313 -0.5058987 0.23153709 0.2656567 0.24694681 0.6193024 0.87326956 -0.56340003 0.11127293 -0.225992 0.057028905 -0.36844423 -0.12002564 0.13118283 0.1134027 0.33750287 0.0329304 -0.17712568 -0.5560488 0.4409392 -0.113551944
x_62_0.0 0.21788704 0.47181845 -0.037783414 0.9706717 0.5372817 0.14010043 -0.08902281 -0.37386295 0.725688 0.24002863 -0.21664321 -0.24581763 -0.08957286 -0.05398662 -0.06344686 -0.5745372 0.44682392 -0.026590692 0.3245224 0.38539228 0.015616008 -0.2734118 -0.14564432 -0.058407173 -0.495069 -0.017414138 0.085209966 0.049391877 -0.20483914 0.22109826 0.6288132 -0.22937557 -0.14115493 -1.1326052 0.06767275 -0.19304112 0.01198259 0.10911148 -0.1398399 0.32020223 -0.52624714 0.45666453 -0.2517924 -0.6668709 0.54381317 -0.014324947 0.058978315 -0.023549536 -0.08785426 -0.100538485 -0.2471208 0.22753024 -0.78547806 -0.069964536 -0.051923886 -0.4143391 -0.51879084 -0.40618396 0.17527962 -0.04689945 -0.24629974 -0.6084091 0.007323073 -0.37278545 -0.044411782 0.06974734 0.2913307 0.63885367 -0.11459168 -0.04807408 0.25510898 -0.18614078 0.07124148 0.51820433 -0.79680836 -0.37373528 -0.2715162 0.47152847 -0.06947843 -0.5335859 -0.5291943 -0.067863636 0.39792383 0.44623733 0.24119946 0.9662443 -0.59749657 0.32011247 0.022013519 -0.13239767 -0.18707855 -0.32059756 0.020932065 -0.15302344 0.4445188 0.17216489 -0.079869285 -0.43160358 0.83107233 0.09321469
x_33_1.0 -0.2526793 0.34539917 0.032131344 0.22316407 0.26580265 -0.4774927 -0.055015914 -0.15042694 0.65446806 0.026679737 -0.070748314 -0.5312115 0.07279758 -0.2785222 0.1103865 0.022286242 -0.2038182 0.33341122 -0.09212419 0.07781878 -0.14949797 0.1713561 0.38392907 -0.23620753 -0.35534483 0.42385158 -0.6123631 -0.47017634 -0.13706808 -0.2776746 0.822542 0.029249359 -0.19975318 0.41610113 0.16611522 0.007794958 -0.030130235 0.15612464 0.5511777 -0.2984394 -0.7946336 -0.73686945 0.15741187 0.46475652 -0.15153463 -0.20736016 0.68737704 0.39323896 0.4133937 -0.19138837 0.8307274 -0.14249104 -0.6099177 0.075406425 0.13922876 -0.07822888 0.28018087 0.16884805 0.12318737 -0.8305564 0.1899587 -0.04654575 -0.055838957 0.17721756 0.56515235 0.10515805 -0.22672142 -0.10275359 0.51955783 -0.3343793 0.06602626 0.3233247 0.022064492 0.070589446 0.29271472 0.12002784 0.35566667 0.029518085 0.31576854 0.044287216 -0.26350307 -0.5381182 0.49945542 0.18766096 -0.33621746 -0.24282208 0.19755934 0.027217612 -0.2297633 -0.7653578 -0.24600405 0.26085418 -0.33180648 -0.08238182 -0.33881563 0.15846395 0.34426966 -0.18399997 0.10641053 -0.060269326
linkRela_1.0 0.24199472 0.4360365 -0.10849339 0.6498383 -0.17006318 0.08591562 0.33257484 0.20715465 0.5048658 0.27709338 0.0034833262 -0.19549909 -0.055991907 -0.52486503 0.50227517 -0.11769993 0.16741814 -0.00434874 0.36612433 -0.03761438 -0.5671152 -0.3394074 -0.28845847 -0.08627933 -0.320916 0.10710391 -0.26016644 -0.4132273 -0.10340729 -0.5471192 0.12546003 0.17213604 -0.5941619 -1.0099448 -0.34233996 0.05928056 0.17652313 0.26008412 0.15037645 0.08323229 -0.08252105 -0.12707444 -0.2716593 -0.34905112 0.4978498 0.067105226 0.1522571 -0.6346784 0.219043 0.021701975 -1.0336826 0.47099626 -0.5349509 -0.46899825 -0.036644313 -0.416958 -0.20825395 0.061637886 0.3655183 0.104646474 -0.39626968 0.16308837 -0.03220895 -0.79067874 0.19636998 0.54313 0.3916606 0.7349285 -0.5006166 0.17131439 0.37042567 -0.1568477 -0.01728285 0.14906333 -0.20078963 0.08017098 0.044568904 0.4812681 -0.43656605 -0.0990107 -0.54999727 0.29026866 0.17788231 0.049124174 0.76277596 0.50095856 -0.4178195 0.106847085 -0.49645233 0.055452637 -0.36411157 0.21929295 0.40511474 0.41291422 0.154215 -0.097366534 -0.18457186 -0.7380348 0.095905975 -0.16015524
basicLevel_3.0 -0.35388252 0.34359646 0.021010399 0.2935352 0.15055296 -0.30678958 -0.06017166 0.26695815 0.61664116 0.5412998 0.3113056 -0.16962026 0.17919672 -0.7983455 0.69080114 -0.04195357 -0.07636903 0.5069774 0.24101935 -0.2847908 -0.66384536 0.05910951 0.21058582 -0.046102088 -0.4878547 0.52500767 -0.6234298 -0.7399007 -0.027788645 -0.83970875 0.85429585 -0.10820673 -0.44669124 0.23759528 -0.28404632 0.11992841 0.17263724 0.17276111 0.7194423 -0.3758504 -0.45288515 -1.025457 0.11373192 0.74349976 -0.067369975 0.03310247 0.5309982 -0.31499898 0.7026862 -0.060698763 0.20658879 0.11139531 -0.5862482 -0.22748767 0.17176116 -0.48015094 -0.026782166 0.34857103 0.371933 -0.32950822 0.33087784 0.34692028 -0.32773674 -0.32099292 0.5176627 0.6969051 0.004535652 0.4139738 -0.072505265 -0.310454 0.06911393 0.13084337 0.17777832 -0.09613445 0.25228122 0.20628506 0.22298957 0.4656549 0.14099656 0.2207685 -0.32244182 -0.31448558 0.4097274 -0.13898423 0.4249404 -0.15701537 0.20461299 -0.26085088 -0.41575348 -0.6898438 -0.54069793 0.45314974 -0.16076256 0.35720995 -0.7380485 -0.022947468 0.4515432 -0.46292067 -0.37743032 -0.44606763
certPeriod_315619200.0 0.13894701 0.22985874 0.057559136 0.30258012 -0.31981495 -0.07556063 0.42352068 0.0967602 0.35986993 0.174315 -0.055688757 -0.27362818 -0.17499605 -0.4549951 0.43708426 0.14959715 -0.010390756 -0.048505954 0.10563883 -0.112227485 -0.53087556 -0.22816594 -0.077867545 -0.19965424 -0.25655398 0.23590498 -0.45198783 -0.33145615 -0.030291732 -0.5325717 -0.025915986 0.19213678 -0.53927594 -0.48522553 -0.06776169 0.09223374 0.17137608 0.13573584 0.27413926 -0.10683244 -0.25431395 -0.43059373 -0.2034886 -0.12091435 0.19059421 -0.009442227 0.3381284 -0.33352754 0.11674564 0.019041847 -0.59302634 0.3204377 -0.28895113 -0.27255598 0.0060496223 -0.08977949 0.22805211 0.19782168 0.20824133 -0.25119993 -0.2981546 0.37073672 -0.0046589584 -0.35468146 0.36135492 0.39800838 0.14697567 0.25461742 -0.19938591 0.093748696 0.27455887 0.023435833 -0.11113429 0.033078533 0.20621632 0.28982243 0.33832735 0.2107178 -0.27151212 0.04477312 -0.41287434 0.06678964 0.12015606 -0.07287687 0.4638759 0.07604899 -0.15751101 0.13833317 -0.47066548 -0.08863733 -0.2050368 0.33289048 0.42014998 0.41073513 -0.027199268 -0.10166378 -0.06706834 -0.611652 -0.06596598 -0.08903944
loanProduct_1.0 -0.057875685 0.42097148 0.016315363 0.5498212 0.17998137 -0.15255494 0.05881322 0.047597 0.6585595 0.40931004 0.0935781 -0.2679713 0.0012120552 -0.5656634 0.46959278 -0.19120762 0.10115861 0.24753955 0.26764926 -0.075360514 -0.4851043 -0.1038574 0.035349935 -0.11406308 -0.49239412 0.35906646 -0.43243995 -0.49337393 -0.070385106 -0.5260849 0.65886354 -0.06677042 -0.43536142 -0.3477231 -0.14098437 0.008968522 0.13246495 0.158509 0.3947429 -0.12585865 -0.49548352 -0.5262869 -0.0777528 0.16164123 0.18668543 0.014210965 0.3958766 -0.22460997 0.37446827 -0.08520193 -0.09402646 0.22091591 -0.6574328 -0.21831009 0.06395218 -0.37631416 -0.08416624 0.09885793 0.33300197 -0.25113913 0.038962908 0.05631311 -0.18536513 -0.38442513 0.3964051 0.5049578 0.14949338 0.49244392 -0.10991334 -0.14612792 0.17363028 0.0065280264 0.07867603 0.12106361 -0.04792356 0.07537254 0.09369586 0.4454398 -0.003777496 -0.06315395 -0.45555204 -0.17664213 0.39690247 0.062795736 0.42109388 0.23860936 -0.11292553 0.0058687744 -0.34776694 -0.45776513 -0.349781 0.22960101 0.01841249 0.24604456 -0.25527537 0.00936149 0.20045902 -0.5453614 0.04247648 -0.22540009
x_25_1.0 -0.42801026 0.35147408 0.01865783 0.19822754 0.18071692 -0.46683633 -0.093304485 0.18674035 0.66331756 0.37693277 0.20496899 -0.31490037 0.2083831 -0.68633896 0.5510906 0.046448946 -0.1999451 0.5425266 0.08382857 -0.18551414 -0.5301264 0.1650416 0.35931802 -0.1126736 -0.45452106 0.5407137 -0.7229343 -0.73863846 -0.07891193 -0.74949485 0.9493017 -0.03523408 -0.36984164 0.5162508 -0.16138186 0.12527531 0.10557339 0.20717996 0.8188703 -0.44500056 -0.6049661 -1.1182361 0.21091387 0.83771443 -0.19521286 -0.07662269 0.6830993 -0.06480064 0.7383784 -0.10860037 0.5667312 -0.034422055 -0.5980111 -0.12189771 0.21227548 -0.38708067 0.11841068 0.36816925 0.27874863 -0.60236347 0.3448191 0.30079833 -0.2503126 -0.10306277 0.59030956 0.53890646 -0.1566819 0.19999412 0.18189046 -0.39713275 0.05100294 0.26697144 0.16577138 -0.0945159 0.3856571 0.23102586 0.36001536 0.3150889 0.24534011 0.26348218 -0.2825326 -0.46849594 0.47327232 -0.065772764 0.12338413 -0.33674774 0.31997803 -0.24683109 -0.40515083 -0.8219193 -0.53513455 0.47098818 -0.30747575 0.21868509 -0.7500414 0.056739908 0.4877728 -0.33409896 -0.3118143 -0.3652353
x_74_0.0 0.21200301 0.48975798 -0.16114375 0.7504077 0.12910648 0.14443074 0.10252238 0.13823776 0.5391656 0.29662046 0.019606214 -0.106072485 0.05043569 -0.37709698 0.35532066 -0.33857942 0.29208338 0.06058919 0.4224731 0.09130911 -0.35886222 -0.28481054 -0.29850912 0.01797807 -0.33932045 -0.0060894443 -0.033006262 -0.31091374 -0.14592305 -0.3179423 0.3475735 0.025883099 -0.40951154 -1.0591261 -0.3776624 -0.016268171 0.116585344 0.247699 0.023192827 0.19439489 -0.05259883 0.1404062 -0.22527996 -0.3834856 0.56895787 0.08656687 0.0026557639 -0.55058783 0.20555322 -0.0106526995 -0.8653304 0.375053 -0.62584764 -0.39603236 -0.05214525 -0.5456497 -0.49885866 -0.0986001 0.35565412 0.26361898 -0.29437622 -0.1268419 -0.03928096 -0.8018024 0.015508208 0.43499923 0.4184205 0.857596 -0.49222618 0.10955994 0.31182113 -0.2110389 0.0873106 0.26062512 -0.508179 -0.1365556 -0.2009737 0.56140286 -0.33801815 -0.22511548 -0.4964973 0.24888797 0.24039173 0.17301068 0.67016125 0.7085516 -0.4972585 0.07242075 -0.31613994 0.04406652 -0.38323924 -0.0004290648 0.18683265 0.2184923 0.24335764 -0.0077920826 -0.1638957 -0.58744866 0.2882073 -0.15414286
linkRela_0.0 0.23716314 0.4449187 -0.09461482 0.6461969 -0.15749766 0.067301035 0.3271028 0.1948912 0.5259451 0.28863838 0.00096002594 -0.20487343 -0.057052042 -0.53797793 0.5043712 -0.10798172 0.15666509 0.004495875 0.36566094 -0.04128011 -0.57817835 -0.33635044 -0.27482128 -0.09412142 -0.3324688 0.11776994 -0.28794667 -0.42124838 -0.10527636 -0.55006856 0.15157507 0.16184354 -0.6025073 -0.992465 -0.34571573 0.065637514 0.18207546 0.2564107 0.17103429 0.073014714 -0.10676737 -0.14737648 -0.2739618 -0.32930413 0.49327973 0.0589973 0.17123386 -0.61505026 0.23271391 0.016689003 -0.9970531 0.46394175 -0.5552332 -0.46562377 -0.026681965 -0.41510803 -0.19600873 0.062137254 0.36380026 0.07909122 -0.38247207 0.16397986 -0.03860933 -0.77714986 0.20656383 0.548367 0.38565955 0.73144066 -0.48111698 0.151996 0.35949504 -0.13986067 -0.013062322 0.1463526 -0.19314225 0.08344503 0.051899504 0.48342645 -0.41992873 -0.08718696 -0.55599344 0.26163003 0.19457608 0.049119983 0.75415254 0.48635998 -0.40978 0.11061042 -0.5055295 0.025163922 -0.3731447 0.22695346 0.394924 0.41088057 0.13462365 -0.09763477 -0.1689006 -0.7526359 0.099174365 -0.15942696
x_34_5.0 -0.17871934 0.28579143 0.042137288 0.21560892 0.2990394 -0.40693617 -0.054214586 -0.24601299 0.58998376 -0.044641063 -0.11950688 -0.5110445 0.03208304 -0.12769446 -0.02463461 -0.021258578 -0.1604108 0.2587498 -0.120000206 0.14023831 -0.011530236 0.15520947 0.3561909 -0.23410839 -0.31032386 0.3528876 -0.5003762 -0.32654235 -0.13006575 -0.111514166 0.71730375 0.018366214 -0.11984549 0.35249835 0.2540261 -0.040618107 -0.053946715 0.110455535 0.41935673 -0.22731517 -0.7737903 -0.54756117 0.13365002 0.3268777 -0.13339621 -0.20233014 0.60054016 0.48060265 0.2678201 -0.18938863 0.84579474 -0.16492356 -0.5413024 0.13991371 0.10849275 0.0005469709 0.27096295 0.07513148 0.06709467 -0.7973888 0.15941036 -0.17012548 -0.01691919 0.2578782 0.48397347 -0.022762684 -0.21537353 -0.16882648 0.5628841 -0.29778197 0.03560581 0.28212368 -0.010056641 0.1008417 0.22598588 0.053023152 0.29340413 -0.049099848 0.3180907 -0.043544978 -0.22194341 -0.5106031 0.46046 0.23863845 -0.4197548 -0.17495331 0.13940836 0.09724935 -0.12577252 -0.67330253 -0.13152418 0.16343655 -0.30977193 -0.15726694 -0.20890945 0.16760363 0.29626232 -0.11756347 0.2089432 0.027503742
loanProduct_3.0 -0.03660023 0.37277088 0.013851601 0.51186216 0.16953662 -0.115836546 0.04714077 0.046001274 0.5897584 0.3807085 0.088302016 -0.22797464 0.0016592154 -0.4963556 0.42064127 -0.18875794 0.10805832 0.21517372 0.25499487 -0.0690327 -0.4293249 -0.10843161 0.017682888 -0.09319252 -0.45041123 0.31314257 -0.3617864 -0.43658367 -0.05976092 -0.45485017 0.5776917 -0.07472239 -0.38074255 -0.353244 -0.13024808 -0.00054802984 0.11787425 0.14025047 0.32992846 -0.097574025 -0.42320442 -0.44096512 -0.07994931 0.12372367 0.19340354 0.01949769 0.32688737 -0.22645332 0.3205969 -0.073285244 -0.12685443 0.20716394 -0.58842605 -0.20578425 0.048764084 -0.3538808 -0.10341808 0.07331822 0.3002044 -0.1923671 0.027075352 0.04050744 -0.17101113 -0.36647958 0.3388189 0.45389476 0.14798112 0.46450835 -0.11746923 -0.11850009 0.16561723 -0.011666369 0.06964772 0.11653992 -0.07397972 0.048278634 0.061511185 0.40624467 -0.009417179 -0.07349863 -0.40373218 -0.1352593 0.34775224 0.06268954 0.39165768 0.23829992 -0.12211785 0.0069401595 -0.29768804 -0.38626862 -0.31075636 0.19273266 0.023214288 0.22155546 -0.21258247 0.0017355185 0.1772725 -0.4907317 0.051921465 -0.19723287
x_34_4.0 -0.17139357 0.2978914 0.03527795 0.2352225 0.3004252 -0.4173944 -0.047271337 -0.26568383 0.60322946 -0.06720777 -0.13889071 -0.54450697 0.023917567 -0.11612142 -0.038905337 -0.018135082 -0.16148278 0.24860081 -0.1208294 0.158397 -0.002766304 0.16041206 0.35739356 -0.24552628 -0.3117792 0.35137305 -0.51144964 -0.32899362 -0.14010528 -0.09683514 0.71786857 0.026563087 -0.13479927 0.3453335 0.27816582 -0.03775774 -0.06511291 0.11674514 0.4117588 -0.22578534 -0.80000716 -0.5379197 0.1332597 0.30493218 -0.13776898 -0.2170914 0.6163919 0.49725232 0.260878 -0.20352736 0.86471766 -0.15784414 -0.5580445 0.15148194 0.10798472 0.020844836 0.29189193 0.06520128 0.05839277 -0.8226648 0.1415486 -0.17903388 -0.007922735 0.27285367 0.49463463 -0.045485623 -0.22373474 -0.1699906 0.5852217 -0.2974751 0.039104182 0.2857537 -0.019177053 0.120351836 0.23018803 0.05981227 0.30604696 -0.052823618 0.31702393 -0.056188248 -0.23222044 -0.5233927 0.46367455 0.25443295 -0.43690875 -0.17002444 0.13709152 0.111347646 -0.12852947 -0.6759553 -0.111827664 0.15905795 -0.30724853 -0.16612418 -0.18356825 0.17249236 0.28053796 -0.11769213 0.24005254 0.047128037
linkRela_-999.0 0.21299092 0.42255056 -0.09298144 0.61329836 -0.15302564 0.048605025 0.31843495 0.18716878 0.5106263 0.27259505 0.010328017 -0.20649238 -0.049295835 -0.5214848 0.48893484 -0.10194536 0.13748737 0.013265528 0.3339733 -0.04058164 -0.55287987 -0.31712317 -0.25137854 -0.09472702 -0.32174194 0.12981161 -0.2880917 -0.41645208 -0.10035117 -0.5344666 0.15396474 0.16051462 -0.5796796 -0.92355555 -0.31667972 0.06476581 0.17605364 0.24356455 0.1731705 0.048951503 -0.119855694 -0.17215702 -0.25462836 -0.29515526 0.45817292 0.056183893 0.18804184 -0.57352126 0.22248799 0.014344756 -0.9315689 0.44004643 -0.5334609 -0.4388918 -0.02990561 -0.3909062 -0.16247578 0.079233475 0.34192988 0.045561537 -0.3548398 0.17669939 -0.034135304 -0.73153174 0.21728478 0.5265306 0.3481663 0.6776657 -0.44062972 0.14087728 0.33764225 -0.13055396 -0.014170625 0.14146084 -0.15990008 0.08891722 0.06675097 0.44809872 -0.4001525 -0.083634526 -0.52562773 0.24140652 0.18789314 0.0409195 0.7120556 0.44731796 -0.37856585 0.100049615 -0.48829234 0.005821951 -0.3596863 0.23362605 0.3729028 0.39163205 0.11602259 -0.08336553 -0.15135652 -0.7103141 0.08469106 -0.15605745
x_72_1.0 0.23006213 0.499661 -0.15502515 0.81761676 0.20177518 0.17032082 0.06222379 0.047873177 0.5760951 0.31363866 -0.031066094 -0.113625646 0.035353087 -0.34292746 0.28816605 -0.39228967 0.32272562 0.041635014 0.4368105 0.12889265 -0.32871896 -0.29735965 -0.28534758 0.006409481 -0.38133067 -0.017554456 -0.018865215 -0.2748213 -0.15085158 -0.2386443 0.41624716 -0.023531169 -0.3604149 -1.1165949 -0.34442368 -0.0476989 0.09401449 0.24766633 0.004618563 0.23263505 -0.11637685 0.21762195 -0.24361183 -0.44503063 0.60256696 0.06894437 0.0006593434 -0.4968112 0.18929195 -0.01727623 -0.7893378 0.37231842 -0.6872318 -0.37111437 -0.048155505 -0.55064565 -0.5165254 -0.16596778 0.34273726 0.23075552 -0.28521684 -0.22247882 -0.057123143 -0.7785907 -0.0074483203 0.39269632 0.4125178 0.86483973 -0.45151946 0.07864459 0.317518 -0.21178862 0.084199294 0.2918583 -0.58307785 -0.2010585 -0.24865173 0.5570801 -0.304641 -0.26995248 -0.519129 0.21982384 0.26595807 0.22791357 0.6283199 0.79635024 -0.52397776 0.105952926 -0.27414688 0.023161408 -0.3627773 -0.04495251 0.14790192 0.16926505 0.28185198 0.0072713164 -0.15206288 -0.5879755 0.38514888 -0.11853482
